3216 128
</s> 0.003127 0.003453 -0.002992 -0.002561 0.001068 0.002360 0.000735 0.000165 -0.002815 0.001733 -0.003403 0.000976 -0.000587 -0.000748 -0.002590 -0.001470 0.002015 0.002364 0.002320 0.001248 0.001207 -0.002971 -0.003200 0.003883 0.002970 0.002414 -0.000472 0.003137 -0.000387 0.000574 -0.000117 -0.002331 0.001025 -0.001045 -0.002989 0.003714 0.003421 -0.000856 -0.000177 0.000398 -0.002842 -0.003131 0.003558 0.000049 -0.002017 -0.002377 -0.002403 0.001326 0.000157 0.001040 -0.003292 -0.002975 -0.000102 0.000893 0.001992 -0.002477 0.003187 0.000724 0.000875 -0.000475 0.002333 -0.001787 -0.001639 0.001686 -0.000588 0.000805 0.001410 -0.003194 -0.001549 0.002276 0.003306 0.003072 -0.002380 -0.001647 -0.000710 0.001564 -0.002960 0.002342 0.002178 -0.001249 -0.001212 -0.001749 0.003304 0.003056 -0.000922 0.003293 0.003766 0.001418 0.003893 -0.002431 -0.001197 -0.001646 -0.002271 0.002199 0.001234 0.000332 -0.001714 0.001191 0.002390 0.000151 0.001781 -0.003869 0.003371 0.000375 -0.001431 -0.001628 -0.000584 -0.002293 -0.003414 -0.002216 0.003341 -0.001383 -0.002093 0.001810 -0.001331 0.003716 -0.001254 -0.003585 0.002122 -0.000058 -0.002726 0.000762 0.001127 -0.000376 0.001425 -0.003092 0.000688 0.001419 
486 -0.223308 0.097634 -0.139201 0.164620 0.026496 -0.195732 -0.118227 -0.312266 -0.078813 -0.102600 -0.185897 0.264453 0.146698 -0.097218 -0.066181 0.025697 0.326921 0.144268 0.009812 -0.328780 -0.126184 0.107468 -0.399128 -0.053300 0.019332 -0.294757 0.102431 -0.112688 0.230009 -0.208626 0.227941 0.133149 -0.007766 0.203595 -0.004552 0.067444 -0.086244 0.234401 0.060524 0.391421 -0.080997 0.129908 0.053147 0.132352 0.003392 -0.066292 0.085932 0.121607 0.230430 0.057380 0.062586 -0.093888 -0.179354 0.066946 0.513219 0.349598 -0.143444 -0.176117 0.191099 0.290099 0.163852 0.314972 0.287165 0.068431 0.026324 0.105617 -0.212371 -0.377517 -0.034118 -0.270487 0.214543 -0.017676 0.121173 0.031374 0.091583 0.270830 0.025596 0.013443 0.152573 0.067835 -0.076075 0.073962 0.244092 0.392908 0.116068 0.354524 -0.067489 0.422522 -0.227037 -0.033397 0.246571 -0.186667 0.131588 -0.191198 0.116597 -0.003403 -0.127135 -0.065808 -0.191895 -0.210823 0.156494 0.251721 -0.315738 0.028035 -0.142814 -0.046263 -0.157583 0.183369 0.001019 0.063636 -0.270412 0.219739 -0.240574 -0.260555 -0.064254 -0.092402 -0.129382 0.086790 0.125017 0.116601 -0.225680 -0.070734 -0.122378 0.028306 -0.106663 0.169020 0.052827 -0.057104 
82 -0.008790 0.117594 0.103878 -0.133141 -0.078895 0.064102 -0.222430 -0.422433 0.250010 -0.209625 -0.110234 -0.173279 0.127417 -0.234601 -0.190067 -0.042714 -0.024052 0.215479 0.108594 0.008832 -0.047005 0.078750 -0.047139 -0.295657 -0.137919 -0.066637 -0.136460 -0.261517 0.196852 -0.113594 0.140126 0.014171 -0.157044 0.053880 -0.187172 0.036093 -0.183078 0.069606 0.031005 0.229092 0.071758 -0.270280 -0.169584 0.028737 0.073362 -0.215013 -0.157925 -0.045212 -0.014130 0.058619 -0.035275 -0.116157 -0.046414 0.111019 0.112419 0.196608 0.096008 -0.207456 0.103198 0.135179 0.076860 0.119934 0.030601 0.056111 0.271788 0.154672 -0.072039 -0.105044 0.210793 -0.024891 -0.074409 -0.238254 0.173530 0.027404 0.107541 -0.141670 0.252113 0.077582 -0.130526 -0.167053 -0.218562 -0.046527 -0.076714 0.085942 0.039505 0.072314 0.026125 0.137302 0.141039 0.227277 0.032971 -0.107398 -0.108723 0.011243 0.092872 0.209184 -0.105335 0.248420 -0.091512 -0.216899 -0.104957 0.196679 -0.064670 0.043183 -0.184641 -0.101339 -0.047194 0.116077 0.116136 0.025953 -0.098636 0.085778 0.193610 0.180831 -0.240101 -0.032259 -0.093568 0.187536 0.071582 -0.000897 -0.129210 -0.091082 -0.081630 0.135318 0.112386 0.198395 0.010379 0.040056 
147 -0.100145 0.032236 0.128026 -0.086527 -0.066320 0.054876 -0.035042 -0.341295 0.269936 -0.070405 -0.090455 -0.001586 0.217494 -0.090431 -0.193003 -0.282328 0.014365 0.120765 0.188860 0.148972 0.111811 -0.078424 -0.342738 -0.062109 -0.036014 -0.242250 0.046777 -0.067158 0.307432 0.003901 0.189671 0.045571 -0.199058 0.246500 -0.038033 0.193823 -0.357471 0.183902 -0.009111 0.101770 0.144469 -0.196804 0.067559 0.135783 0.204577 -0.129119 -0.278683 -0.076454 0.182098 0.166585 0.031879 -0.044343 0.078545 0.275963 0.006043 0.208802 -0.001071 0.115125 0.208320 0.129976 0.070989 0.340771 -0.029967 0.070234 0.128224 0.178566 0.072746 0.041600 0.141363 0.054477 -0.057166 -0.192121 0.192347 0.099399 -0.068298 0.049556 -0.034714 -0.019234 -0.181493 -0.132394 0.063934 -0.113877 -0.099529 -0.077135 0.265256 -0.127196 0.120325 -0.140807 0.332994 0.008824 0.062263 -0.139183 -0.099085 -0.080318 0.224474 -0.192893 -0.203310 0.032626 -0.103683 -0.086426 0.072574 0.016400 -0.054308 0.204172 -0.010938 -0.219254 -0.117361 -0.049542 -0.119833 0.231580 0.113007 0.179082 0.103291 -0.115304 -0.178884 0.000573 -0.249614 -0.011129 -0.042122 0.266937 -0.095740 -0.083333 -0.180593 -0.004595 0.141648 0.315850 -0.099635 -0.230419 
223 -0.262563 0.033015 -0.061160 -0.044599 0.081194 0.142649 -0.000527 -0.241388 0.173752 0.038844 -0.049970 0.073854 -0.002225 -0.287176 -0.046756 -0.228227 0.003055 0.217673 0.163929 -0.023348 0.046490 -0.019691 -0.159281 -0.093745 0.372911 -0.070852 -0.254489 0.102966 0.022678 -0.264877 0.230115 0.113856 -0.160019 -0.000903 0.055992 -0.037768 -0.169924 0.001032 0.221722 0.052646 -0.100156 -0.313082 0.089681 0.104998 0.183403 -0.170888 -0.240916 -0.045568 0.101492 0.245975 -0.158961 0.240388 -0.003481 -0.082833 0.081594 0.189628 -0.249851 -0.071602 0.064431 0.100347 0.120045 0.094917 0.023983 0.321171 0.047900 0.230189 0.168923 -0.046322 0.343269 0.199289 -0.031381 -0.213750 0.320889 0.099172 0.106245 0.040900 0.195638 0.113325 -0.212204 -0.039878 -0.017970 -0.088719 -0.106444 0.305296 -0.140190 0.105327 -0.140035 0.302564 0.169336 0.041187 0.046926 -0.160222 0.072088 -0.004813 0.079239 -0.032749 -0.163104 0.012119 -0.155297 -0.031259 0.072875 0.202280 -0.165611 0.431885 0.000759 -0.219505 0.062329 0.010713 0.002632 0.024919 0.036714 0.163064 0.170887 0.040279 -0.207728 0.016355 -0.196964 -0.002154 0.233098 -0.089549 0.076052 -0.161896 -0.083543 -0.087749 0.202577 0.179012 -0.095055 -0.116612 
279 -0.116702 -0.000135 -0.022625 0.105982 -0.175766 0.016483 -0.060422 -0.218693 0.404012 0.195054 -0.044005 -0.122964 0.298736 -0.406415 0.246433 -0.155663 0.262774 -0.093663 0.174604 -0.158884 -0.120106 -0.025315 -0.211515 -0.211249 0.093260 -0.053412 0.199451 -0.191166 0.241120 0.230519 0.084496 0.151664 -0.070029 0.364415 -0.135179 0.198075 -0.164245 0.123980 0.176786 0.229812 -0.114554 -0.369728 0.154338 0.172883 -0.107782 0.027905 0.113625 0.255979 0.246743 0.161413 0.172348 -0.081772 -0.317915 0.119427 0.132097 0.126564 -0.074609 -0.136131 -0.003032 0.282217 0.209417 0.317353 0.125033 -0.002449 0.180349 0.013585 0.015564 -0.230524 0.164806 -0.155501 0.148726 0.085890 0.234039 -0.046488 0.031206 0.128114 0.093238 0.083808 0.234026 0.040107 -0.034612 0.274330 0.012507 0.095159 -0.064568 0.162083 0.255616 0.586423 -0.064362 0.147420 -0.029941 -0.079871 0.004147 -0.024381 0.165222 -0.143658 0.083495 0.089513 0.004148 -0.051460 0.203839 0.289081 -0.210731 -0.076785 0.045988 0.165489 -0.081305 0.293979 0.089114 0.160671 -0.420057 0.067738 0.008113 0.116676 -0.109725 0.065171 -0.052198 -0.222169 0.279063 0.047504 0.107447 0.098954 0.109022 -0.134691 0.148394 -0.060434 0.056008 -0.135129 
415 -0.464523 -0.034022 -0.232212 0.202261 0.123180 -0.307800 -0.320418 -0.371283 0.132051 0.122539 -0.043635 -0.239752 0.022858 -0.285798 0.089403 -0.006688 0.083739 0.086015 0.176672 -0.148501 -0.000777 0.087878 -0.026490 -0.011358 0.205793 -0.440520 0.157892 -0.221490 -0.126318 -0.022968 0.036407 -0.240048 -0.166730 0.057045 -0.348679 0.042169 -0.156286 0.191690 0.126109 -0.026800 0.153964 -0.136746 -0.090993 0.009487 0.338110 -0.097428 -0.134529 0.006243 0.100658 0.184877 0.056191 -0.059629 -0.112964 0.108027 0.024632 0.242066 -0.125804 -0.130652 -0.075347 -0.153137 0.010227 0.283250 0.101531 -0.078798 -0.073487 0.165337 -0.068303 0.066166 0.029185 -0.205477 0.174014 0.058662 0.255320 0.028947 0.122706 0.232277 0.056325 0.202758 -0.099874 -0.071719 -0.212112 0.079526 -0.018248 0.274423 0.055005 0.226475 -0.214358 -0.024851 0.085159 -0.164281 -0.226048 -0.077693 -0.057658 -0.245995 0.070755 -0.245637 -0.013487 0.077563 -0.143210 -0.070579 0.233027 0.006355 -0.202465 -0.060683 -0.163054 -0.250938 0.172398 0.199549 0.178588 0.192603 0.040086 0.249253 0.113136 0.089876 -0.112666 -0.275213 -0.194578 0.100950 0.024289 0.239846 0.060387 -0.051262 -0.107988 0.122502 -0.170691 -0.061597 0.181919 -0.084095 
178 -0.213565 -0.076509 0.050183 0.050096 -0.103248 -0.011791 -0.082021 -0.372904 0.088200 -0.154924 -0.112325 -0.052343 0.288566 -0.391093 -0.162363 -0.255284 0.059795 0.151825 0.148477 -0.052354 0.040625 0.014376 -0.116120 -0.062557 0.043684 -0.214477 -0.296261 -0.116237 0.207754 -0.105485 0.158943 -0.027138 -0.154867 0.125257 -0.041443 0.246758 -0.143641 -0.099755 0.181039 -0.019576 0.018964 -0.482046 0.157771 0.230191 0.124287 0.040610 -0.173546 0.181328 0.341080 0.006010 0.009821 0.104145 0.051083 0.133527 0.027177 0.188034 0.029381 0.001450 0.243912 -0.158598 -0.031985 0.057500 -0.088194 0.366432 0.075974 -0.004080 -0.079717 0.033311 0.164309 0.050098 -0.035653 -0.247287 0.088549 0.255791 -0.121077 -0.129113 0.376763 0.096906 -0.101446 0.015216 0.139425 -0.221622 -0.069301 0.007485 -0.120928 0.008970 -0.015389 0.267391 0.028195 0.055239 -0.018557 -0.167688 -0.124589 0.071227 0.183492 -0.054180 0.006398 -0.011047 -0.013243 -0.111039 0.069494 -0.049392 -0.240846 0.192303 -0.006512 0.000809 0.135826 -0.075850 0.051642 0.242877 -0.059126 0.223287 0.272663 -0.037955 -0.281670 -0.003794 -0.051111 0.098219 0.082879 0.219736 0.034014 -0.001526 -0.184134 0.133969 0.074586 -0.068351 -0.093510 -0.163396 
87 -0.083298 0.009936 0.053833 -0.041760 0.109200 0.050416 0.076849 -0.392977 -0.026309 0.146365 0.066539 -0.179089 0.219849 -0.139114 0.035829 -0.250921 -0.054015 0.240714 0.249459 -0.245283 -0.083905 0.109532 -0.159608 0.020171 0.074634 -0.229510 -0.055228 -0.192951 0.185345 0.225546 -0.072874 -0.034613 -0.323601 0.238090 -0.200611 0.231529 -0.145989 -0.040341 0.290184 0.077852 -0.098365 -0.033002 0.096616 0.155063 0.046080 0.008675 -0.220171 0.017499 0.109347 0.006259 0.024021 0.033006 0.026252 0.223958 -0.086050 0.194131 -0.022841 0.090303 0.096256 0.120714 0.184232 0.169265 -0.082736 -0.199400 0.156329 -0.061845 -0.040525 0.112437 0.253587 0.127073 0.126797 -0.139620 -0.046211 -0.007965 -0.243122 0.214972 0.177368 0.073028 0.023321 0.160900 -0.130989 -0.018268 -0.310378 0.161239 0.177739 -0.145533 -0.237506 -0.055718 -0.024415 0.187320 -0.143314 -0.172213 -0.136512 -0.010683 0.085662 -0.113117 -0.127978 -0.048661 -0.220765 -0.153117 0.082634 0.071276 -0.247331 0.204990 -0.214494 -0.233889 -0.135602 0.062038 -0.096898 -0.058164 -0.133863 0.200312 0.115757 0.114153 -0.257108 0.219860 -0.100004 0.094274 0.157773 -0.003568 0.027070 -0.210475 -0.009366 0.446218 0.172492 0.178489 -0.174163 -0.014597 
455 0.023274 0.063937 0.172833 0.082467 0.187994 -0.073114 -0.326345 -0.382649 -0.119505 0.036309 -0.104990 0.035905 0.074841 0.004919 -0.187910 0.128558 0.250512 -0.052206 0.222219 -0.416380 -0.018863 -0.017034 -0.384682 -0.019639 -0.241908 -0.359175 -0.037398 -0.157395 0.107300 -0.003710 0.404505 0.112004 -0.155979 0.109162 -0.078882 0.152349 0.001180 0.085083 0.318684 0.312295 -0.135928 0.165353 0.395354 0.277220 -0.091672 -0.275435 -0.122739 0.127302 0.196324 0.252746 0.268514 -0.126978 -0.256744 0.040886 0.388701 0.278062 -0.129713 -0.054467 0.124732 0.035545 0.239893 0.148438 0.148266 -0.058202 0.005396 -0.055614 -0.063180 -0.372894 -0.062842 -0.168398 0.115223 -0.154891 0.070386 -0.089017 0.108977 0.398926 0.112753 0.068926 -0.014491 0.002738 -0.116127 0.096136 0.127307 0.183569 -0.133684 0.230732 -0.165400 0.266331 -0.121187 0.067096 -0.060826 -0.229204 0.220093 0.095976 0.060709 0.132127 0.109397 -0.179016 -0.024918 -0.023457 0.272228 0.210576 -0.359536 -0.111042 -0.096693 0.090202 -0.146366 0.357017 0.123450 0.253425 -0.231549 0.111472 -0.091859 -0.332671 -0.060153 -0.055157 -0.091642 -0.037522 0.012225 0.172288 0.167049 -0.323558 -0.002856 0.066325 -0.080426 0.262304 -0.066308 -0.021574 
460 -0.073027 -0.007434 -0.020004 0.206002 0.043466 -0.005965 -0.216524 -0.267663 0.085868 0.032227 -0.060642 -0.092814 0.091792 0.069092 -0.140065 0.068012 0.181240 0.198342 0.074548 -0.314476 0.123636 0.171124 -0.349602 -0.098380 -0.047907 -0.316070 0.114206 -0.057488 0.111662 -0.205509 0.290562 0.161616 0.164553 0.144221 -0.086326 -0.027738 0.098814 0.180986 0.266270 0.406348 -0.013685 -0.131000 0.099013 0.125052 -0.155917 -0.117223 -0.078745 0.145810 0.348326 0.201233 0.178385 -0.276269 -0.376722 0.225111 0.328849 0.011490 -0.004798 0.016095 0.369221 0.068980 0.147982 0.302965 0.240786 -0.075072 0.128184 0.213230 -0.051391 -0.312098 -0.114653 -0.147830 -0.026080 -0.012692 -0.086569 0.078367 0.124093 0.243638 0.288476 -0.047606 0.099702 0.265096 -0.174292 0.018102 0.069108 0.212371 0.169947 0.044819 -0.273130 0.318988 -0.046759 -0.118451 -0.102602 -0.296897 0.160932 -0.116931 0.149151 -0.126860 0.040418 -0.141690 -0.061765 -0.154801 0.319460 0.190158 -0.195229 0.121661 0.059698 -0.131625 -0.048492 -0.008697 0.148998 -0.052539 -0.127688 0.064394 -0.203397 -0.103805 -0.356358 0.162831 0.094275 -0.208674 -0.082697 -0.126666 0.071743 -0.284427 -0.029942 0.143694 -0.088400 0.195535 0.152717 -0.188387 
102 0.045993 0.031546 0.029141 0.150503 -0.111246 -0.039793 0.005951 -0.248875 0.160277 0.129909 -0.003034 0.000055 0.329222 -0.202818 0.050410 -0.029307 -0.316576 0.254118 0.111549 -0.030398 -0.032854 0.117490 -0.307633 -0.071804 -0.109281 -0.034828 0.034924 -0.051156 0.353170 0.084187 -0.081331 -0.075441 -0.135650 0.115820 0.116702 0.022180 -0.044618 0.101128 0.178539 0.035385 0.079153 -0.004414 0.160770 -0.109282 0.250803 -0.078939 -0.281488 -0.035559 0.148488 0.128526 0.098390 -0.156526 0.115606 0.319115 0.153506 0.269825 -0.030604 0.146332 -0.073857 0.122337 0.107069 0.158710 0.204111 0.046821 0.031569 -0.166081 0.045132 0.048768 0.324174 -0.151965 0.103881 -0.359891 -0.010869 0.331458 -0.127255 0.226804 0.354364 0.030294 -0.152975 0.159850 0.037140 -0.078568 -0.321724 0.182131 0.037067 -0.110028 0.088583 0.053979 0.103394 0.060988 -0.064256 0.193930 0.258853 0.010671 -0.004767 -0.187884 -0.203689 -0.083379 -0.016637 -0.208568 -0.020781 0.159751 -0.340428 -0.013703 0.036175 -0.170319 -0.103977 0.079849 -0.104444 0.076439 -0.166206 0.170682 -0.022417 0.072981 -0.141731 -0.175996 -0.229524 0.237338 -0.026924 0.106021 -0.215217 0.047239 -0.111680 0.114486 -0.029417 0.245267 -0.282931 -0.141001 
342 -0.100876 0.053432 -0.165907 -0.088363 0.014401 0.120208 -0.229897 -0.478539 0.148839 0.017981 -0.452132 -0.116706 0.029802 0.007671 -0.198035 -0.052751 -0.090448 0.179721 0.433971 -0.322177 -0.018683 0.238337 -0.277007 -0.210045 0.335309 -0.378493 0.077503 -0.221868 0.191177 0.053410 -0.418716 0.023744 0.054665 0.314896 0.056490 0.222538 -0.070947 0.261322 0.121698 -0.070610 0.124702 0.065534 0.118631 0.209283 0.116506 -0.000146 -0.339586 -0.104162 0.482011 0.183391 -0.079692 0.050132 0.203073 0.131167 0.188877 0.241229 0.162988 -0.049030 0.202063 0.098578 -0.138909 0.274826 0.279020 0.001877 0.152266 0.167535 -0.170099 -0.165208 -0.042084 -0.389896 0.015630 0.241897 0.106884 0.043676 0.030967 0.303461 -0.018611 0.074082 0.002366 0.006034 -0.124791 -0.104666 0.172024 0.321732 -0.095549 -0.010916 -0.228308 0.240011 -0.322777 0.199346 0.020452 -0.178612 0.222593 -0.109581 0.202865 0.004590 0.150005 -0.019708 0.099026 -0.343970 0.024142 0.190155 -0.233120 -0.037846 -0.023008 -0.297843 -0.230012 0.159593 0.152723 0.080384 -0.206776 0.123858 -0.116308 0.214474 -0.153492 -0.163231 -0.365317 -0.125798 -0.176598 0.111723 0.028639 -0.062424 -0.237355 0.218896 -0.059317 0.113147 -0.511898 -0.121282 
65 -0.083953 0.032135 -0.068697 -0.013415 -0.025838 -0.109957 -0.216444 -0.434534 0.023370 -0.139002 -0.039682 0.100963 0.200388 -0.383386 -0.148222 -0.267002 0.098013 0.167984 0.321303 -0.040837 0.059773 -0.001803 -0.325534 -0.146765 -0.167813 -0.040371 -0.159935 0.012508 0.151615 -0.140276 0.000775 -0.024630 -0.055492 0.025811 -0.133659 0.197565 -0.115997 -0.005471 0.170042 -0.003379 -0.123874 -0.503817 -0.030935 0.162747 0.125541 -0.069996 0.037648 0.034757 0.132002 -0.134691 0.066943 0.128576 0.018629 0.064311 0.045567 0.203754 -0.115523 -0.025957 0.225228 0.051098 0.071975 0.124294 -0.017617 0.227249 0.004231 0.111889 0.041431 -0.095953 0.028213 -0.011558 -0.108543 -0.117942 0.151141 0.101422 -0.129682 -0.140395 0.347581 0.011112 -0.238535 -0.026064 -0.233701 -0.016746 -0.085140 0.167151 0.107124 0.195051 -0.244310 0.266200 0.261454 0.193566 0.086066 -0.132028 -0.095338 0.114822 0.232082 -0.035831 -0.291978 0.150828 -0.129269 -0.113664 -0.062652 -0.018458 -0.302376 0.024246 -0.082097 -0.036604 0.088769 0.061863 0.005985 0.187275 0.038319 0.134712 0.034747 -0.032114 -0.175583 0.115186 -0.043531 0.072858 -0.055672 0.111573 0.035130 -0.063479 -0.329264 0.069423 0.165416 0.093231 -0.100658 -0.060207 
81 0.017784 0.038468 0.036174 0.195055 0.057173 -0.152247 -0.301494 -0.370383 -0.008995 -0.021561 -0.227311 0.146715 0.001110 -0.219468 -0.088699 -0.046860 0.193619 0.073819 0.340853 -0.173007 0.030823 -0.113904 -0.099105 0.014059 0.150819 0.051698 0.208691 -0.053663 -0.042573 -0.187590 0.325936 0.026219 0.140406 0.209569 0.102394 0.062968 -0.014104 -0.238128 0.027174 0.271480 -0.054146 -0.180955 0.067586 -0.032992 -0.034613 -0.024764 -0.252872 -0.020211 0.180764 0.234251 0.004210 0.239850 0.082065 0.021930 0.189862 0.231744 -0.051028 -0.093773 -0.021237 0.205410 -0.079038 0.117017 0.023021 0.070738 0.178338 0.107949 -0.116870 -0.154787 0.305957 0.053673 0.027253 -0.226510 0.136127 0.088917 0.002148 -0.010538 0.208104 -0.061299 -0.108398 -0.028192 -0.256619 -0.021195 -0.370052 0.239019 0.077268 0.053532 -0.032388 0.177738 0.032513 -0.103750 -0.033101 -0.038447 -0.048767 0.000566 0.197251 -0.213675 0.056000 -0.040270 -0.160505 -0.207268 0.105507 0.248499 -0.096328 0.226468 -0.070378 0.025483 -0.038503 -0.066083 0.010272 0.011608 0.116476 0.161155 -0.081793 -0.169241 0.067983 -0.011985 -0.232704 0.194316 0.279859 0.096994 0.015650 -0.180861 0.066185 -0.176129 -0.044473 0.167120 -0.056534 -0.115787 
183 -0.116110 -0.073778 0.081838 0.118317 0.059091 0.042131 0.024145 -0.415519 0.002817 0.019716 -0.145465 -0.155343 0.175720 -0.335909 0.064220 -0.067235 0.043633 -0.105991 0.199320 -0.204563 -0.067420 0.196848 -0.158347 0.081885 0.062996 0.090951 -0.203597 -0.081879 0.278328 0.102222 -0.121933 -0.025603 -0.130049 0.354718 0.059210 0.182108 -0.098096 0.041333 0.215922 0.029095 0.188817 -0.277918 0.154160 0.066513 0.360116 -0.249090 -0.260750 0.022883 0.181293 0.040679 0.080511 -0.026202 -0.029815 0.176825 -0.104942 0.322639 -0.065166 -0.021326 0.128305 0.074388 -0.068514 0.149328 -0.068460 -0.043762 0.256561 0.076783 -0.111152 -0.048683 0.073633 0.005344 0.076103 -0.298799 0.134421 0.051508 -0.021899 0.015967 0.047470 -0.225635 -0.067143 -0.088414 -0.152569 -0.078951 -0.150983 0.051252 0.128056 0.018263 0.273016 -0.075568 0.014538 -0.045035 0.090325 0.031146 -0.013901 0.071485 0.128400 -0.109410 -0.289140 -0.182182 0.082708 -0.349286 0.090456 0.274628 -0.169544 0.050972 0.224528 -0.263221 0.056087 0.006054 0.224900 0.005102 0.182416 -0.022334 -0.179967 0.008579 -0.192830 0.293174 -0.123398 0.171441 -0.060157 0.174708 0.032968 0.063396 -0.062885 0.246540 0.069916 0.281360 -0.273382 0.077337 
56 -0.106221 0.014513 0.224370 0.062408 0.087882 0.280297 -0.196434 -0.421609 0.053642 -0.312385 -0.057290 0.047151 0.212543 -0.116217 0.011999 -0.157334 -0.002244 0.309764 0.005347 -0.164028 -0.007905 0.180343 -0.166176 -0.294262 -0.025551 -0.119651 -0.011857 -0.194980 -0.077844 -0.273288 0.120636 0.124151 -0.292852 0.428463 -0.164300 0.247923 -0.217381 -0.002077 0.062756 -0.061118 0.010673 -0.043662 0.009228 -0.041332 0.246191 -0.034884 0.007133 0.094445 -0.154529 0.456291 0.084771 0.038867 0.233097 0.234432 -0.160766 0.179512 0.208645 -0.160912 0.210956 0.156911 0.043455 -0.006807 0.069295 0.100711 0.141972 -0.038248 0.003451 0.039365 0.196522 -0.163455 -0.080554 0.082727 0.131683 -0.089353 -0.005120 0.287349 0.237141 -0.020172 -0.091837 -0.096849 -0.163250 0.110416 -0.402759 -0.139258 -0.106928 0.094971 0.053155 0.102628 -0.042377 0.058324 0.111367 -0.114199 0.124951 0.078261 -0.296455 -0.042256 -0.016317 0.071025 -0.118072 -0.036327 -0.091534 0.259416 -0.114232 0.104770 -0.178094 -0.335036 -0.068230 0.074658 0.040186 0.174686 -0.041606 0.149642 0.030532 0.229953 -0.249258 -0.127593 -0.207440 0.389256 0.012804 -0.003662 -0.042656 -0.105578 -0.143620 0.168150 0.062345 0.222682 0.157623 -0.074875 
51 -0.253927 0.178234 -0.019178 0.155650 -0.160096 -0.010774 -0.190051 -0.484566 -0.035611 -0.088730 -0.253285 0.022606 0.244292 -0.389632 0.009879 -0.162513 -0.080006 -0.229185 0.236219 0.094600 0.017701 0.061098 -0.290984 -0.316588 -0.012883 -0.018818 -0.133363 0.037975 0.146020 0.056056 0.255311 0.091624 0.015648 0.121043 0.057829 -0.031951 0.089115 -0.072056 0.094931 0.046512 0.185825 -0.157591 -0.132010 -0.048505 0.052780 -0.058074 -0.091604 -0.037756 0.203216 -0.212716 0.001638 0.085099 0.001597 0.058592 0.091936 0.017977 0.022540 -0.196487 0.130295 0.141648 0.150777 0.067749 -0.030822 0.005767 0.132821 0.088153 0.116406 0.006266 0.333961 -0.162982 -0.173793 -0.004560 -0.020985 -0.045175 0.096965 -0.001127 0.055817 -0.160301 -0.185664 0.086750 -0.270468 0.005841 -0.433220 0.115331 0.038416 -0.100582 -0.096588 0.078027 0.101325 0.289695 0.047832 -0.106308 0.072259 -0.019961 0.159786 -0.232009 -0.188938 -0.106441 -0.023321 -0.126010 0.085106 -0.054294 -0.274302 0.167169 -0.127571 -0.234734 -0.132000 -0.136459 0.148266 0.127593 -0.107926 0.097928 0.124659 0.117724 -0.229008 -0.000583 -0.011104 0.060597 0.126763 0.214453 0.002466 -0.011841 -0.248585 0.192508 -0.105492 -0.107082 0.141819 -0.119950 
52 -0.204312 0.038540 0.119125 0.207252 -0.058300 -0.070908 -0.342779 -0.389343 -0.035861 -0.188302 -0.041736 0.058190 0.039708 -0.242063 0.113550 -0.124347 -0.001983 -0.151513 0.374097 -0.067220 0.001528 -0.067476 -0.106441 -0.062858 -0.072507 -0.214490 -0.011424 -0.181481 0.016071 -0.046156 0.299130 0.123094 0.180543 0.123339 -0.168557 0.229344 -0.012041 -0.398774 -0.079677 0.016847 0.132008 -0.136780 -0.037511 -0.099820 -0.009114 -0.031770 -0.243381 0.310903 0.209424 0.105952 0.150856 0.073662 0.000791 0.157069 0.040149 0.106566 -0.106489 -0.035542 0.019879 -0.029202 0.107002 0.105686 0.159708 0.174731 0.201910 0.032901 -0.240780 -0.392414 0.291944 0.028770 -0.012928 -0.227053 0.153822 0.169054 0.111979 0.013060 0.240229 -0.042925 -0.063567 0.004797 -0.206971 0.027649 -0.231764 -0.019528 0.186933 0.110473 -0.066421 0.204818 -0.075636 0.084685 -0.065446 0.024623 0.048090 -0.126596 0.148932 0.157451 0.008267 -0.066620 -0.257423 -0.232758 -0.123586 0.397360 -0.313315 0.080888 -0.264188 0.111069 -0.118592 0.143470 -0.099428 -0.007920 0.010269 0.169079 0.009744 -0.016169 -0.076281 0.125440 0.005133 0.018020 0.000652 -0.014098 -0.140256 -0.085501 0.009643 0.019463 0.008407 0.083735 -0.232527 -0.165945 
17 -0.033845 -0.178652 0.070916 0.333729 0.179018 -0.121551 -0.236922 -0.390577 -0.104713 0.044282 -0.002875 -0.062280 0.005828 -0.213084 0.111510 -0.015369 0.382912 0.099261 0.106507 -0.150222 0.205304 -0.193647 -0.135969 -0.036962 -0.166057 -0.049104 0.076392 -0.187726 0.010474 0.058939 0.530286 -0.027056 0.050151 0.380349 0.222856 0.183391 -0.020843 -0.252156 0.047333 0.475622 0.037147 -0.105636 0.121093 -0.049544 -0.003548 0.057257 -0.154963 -0.047059 0.365182 0.307801 -0.065990 0.037818 -0.028368 -0.020468 0.216421 0.146058 -0.108989 -0.120173 -0.007441 -0.025009 -0.038993 0.029890 -0.091694 0.031800 -0.026738 0.278368 -0.250836 -0.217657 0.271430 0.035476 0.038627 -0.011960 0.025505 -0.026520 -0.193627 0.105628 0.136833 -0.087593 0.006064 -0.095531 -0.274135 -0.132385 -0.017670 0.161923 0.154969 0.144187 0.107426 0.460842 0.137306 0.213101 -0.292436 -0.090938 0.054933 0.104879 -0.038790 -0.270136 0.011362 0.040561 -0.234757 -0.077182 -0.007804 0.217923 -0.188647 0.006463 0.009045 -0.110073 0.134772 -0.046122 -0.262701 0.010988 0.001525 0.271618 -0.041156 -0.113273 -0.106097 0.217986 -0.292256 0.277472 0.144489 -0.052706 -0.126913 -0.277067 0.138607 -0.146874 0.047317 0.161994 -0.097309 -0.136889 
130 -0.337245 0.241635 0.099562 -0.007486 -0.002600 0.046783 0.010076 -0.543722 0.127895 0.008020 -0.034170 0.118076 -0.121628 -0.161493 -0.113604 0.061102 -0.065132 0.361462 0.005114 -0.068927 -0.058514 0.060457 0.001254 -0.176838 -0.403771 0.040131 0.012471 0.086621 0.002787 -0.119307 0.114178 -0.009256 -0.316748 0.319370 -0.002730 0.001773 -0.221140 0.027135 0.188278 0.001948 -0.001914 -0.042183 0.271336 0.262210 0.125732 -0.101824 -0.123569 0.014171 -0.130220 0.212351 -0.065393 -0.135748 -0.102051 0.244751 -0.057834 0.286392 0.005973 -0.147309 0.118247 0.251067 0.064470 -0.103775 0.009809 -0.117276 0.216868 -0.005387 0.172588 -0.067450 -0.038974 0.017416 0.052612 -0.139963 0.031115 -0.001074 -0.125071 0.262727 0.123499 0.040959 0.020149 0.005308 -0.116001 0.049052 -0.455996 0.201395 -0.340764 -0.017483 0.229735 -0.010642 0.139089 0.061673 0.120691 -0.038561 0.293805 -0.033647 -0.022052 -0.026529 -0.026393 0.170168 -0.136736 -0.158972 0.108088 0.054805 -0.159383 0.098621 0.033120 -0.162999 -0.107590 0.190124 -0.045969 -0.026081 -0.073131 0.278798 0.160609 0.019647 -0.270768 -0.035080 -0.336056 0.119410 0.155701 0.277933 0.077941 -0.043998 0.039949 0.324716 0.050085 0.112111 -0.014744 -0.250671 
226 0.050115 -0.000912 0.048554 0.157486 -0.002345 -0.049029 -0.140912 -0.239629 0.149686 -0.169561 -0.065155 -0.129751 0.471830 -0.277312 0.060506 -0.030574 -0.263696 0.092464 0.348536 -0.046672 0.172268 0.053906 -0.102590 -0.195064 -0.196796 -0.098871 -0.021709 0.039524 0.404016 0.255705 0.137308 0.101802 -0.323372 -0.015724 -0.165425 0.065027 -0.239332 0.087648 0.109478 0.010361 0.136003 -0.224203 0.173573 0.022809 0.046129 -0.058824 -0.258706 0.150752 0.150622 0.237111 0.039129 -0.100573 -0.083419 -0.018630 -0.065901 0.284961 0.036510 0.416747 0.024843 0.021265 0.148026 0.203588 -0.024347 0.028490 0.238068 0.205822 -0.060956 0.170988 0.263054 -0.115791 -0.028675 -0.145878 0.078837 0.133111 -0.163191 0.278427 0.140718 0.079789 0.032739 -0.051961 0.120955 0.042133 -0.289098 0.211727 0.149064 0.080410 0.138692 -0.233497 0.095876 0.062905 0.102593 -0.145049 0.067676 0.028662 0.042302 -0.049865 -0.100837 0.022510 0.083553 -0.093548 -0.007151 0.272241 -0.197949 0.117700 0.163118 -0.216700 -0.122065 0.057573 0.108118 -0.129463 0.135300 0.110985 0.190781 0.014634 -0.193597 -0.085213 -0.069094 0.181374 -0.000900 0.266789 -0.095096 -0.117462 -0.126832 -0.029936 -0.161689 0.298713 -0.392614 -0.067998 
116 -0.104608 0.039255 0.088727 -0.236775 -0.112888 0.124338 -0.259893 -0.325354 0.247081 0.015568 0.161075 0.114508 -0.086077 -0.122461 -0.226696 0.108192 -0.221365 0.101199 0.026217 -0.074248 -0.064165 -0.169936 -0.107480 -0.180839 -0.027698 -0.240091 0.062730 -0.221706 0.223323 -0.124944 -0.007105 0.043383 -0.004769 0.197762 -0.126363 0.163790 -0.128630 0.211948 -0.164432 0.124512 -0.023155 -0.575891 0.150380 0.026155 0.157319 -0.182062 -0.257250 -0.003629 0.103187 0.145521 0.191499 -0.091978 0.219266 0.203338 0.262572 0.268794 0.289735 -0.036267 0.001686 0.117355 0.098530 -0.086489 0.242670 0.167925 0.197958 -0.131783 0.142456 0.092753 0.245478 -0.172816 0.200869 -0.372962 0.171839 0.064286 -0.109046 0.242357 0.080578 0.217070 -0.299448 0.118222 -0.155379 -0.072887 -0.216554 0.149597 0.166658 -0.071513 0.041896 0.071313 0.134263 0.032564 0.024474 0.051997 0.017181 0.183131 0.142570 -0.243648 -0.229419 0.110522 0.076601 -0.011724 0.011419 0.102873 -0.331585 0.163107 0.080757 -0.205287 -0.273128 0.051605 -0.009749 0.048267 -0.122446 0.021972 0.119715 0.003402 -0.131306 -0.016514 -0.175457 -0.062182 -0.036427 0.396743 -0.138875 -0.016122 -0.215039 -0.025112 -0.106743 0.014811 -0.143303 -0.379380 
248 0.027989 -0.084981 0.148992 0.023738 -0.029334 0.097386 -0.170247 -0.244848 0.274651 -0.134267 -0.061681 0.063761 0.164367 -0.207019 -0.178953 -0.181975 -0.301788 0.094386 0.005099 0.002793 0.185808 0.142608 -0.060389 -0.073911 -0.089830 -0.200365 0.208594 -0.041250 0.335541 0.121904 0.037736 0.033268 -0.160033 0.156887 0.157672 0.249636 -0.136685 0.043213 0.259237 -0.074294 0.200532 0.073993 0.018556 0.027049 -0.010413 -0.108311 0.004917 0.020816 0.309463 0.262408 0.019079 -0.133483 0.017339 0.215058 0.069853 0.227480 -0.038943 0.194434 0.086026 0.145787 0.103284 0.125542 0.141534 0.096040 0.042094 -0.161832 0.014325 0.109044 0.386019 -0.109500 0.168756 -0.245908 0.229045 0.085210 0.033495 0.146532 0.227133 0.133663 -0.123728 0.015858 0.014844 -0.120090 -0.334212 0.093249 0.130209 0.004937 -0.133484 -0.105816 0.011308 0.072705 0.078931 -0.088846 -0.130198 -0.061320 -0.042390 -0.046696 -0.178958 -0.095181 -0.024844 0.003475 0.152045 0.212845 -0.191571 0.065592 0.252967 -0.350596 -0.021494 -0.070217 0.111089 0.107071 0.019308 0.384072 0.131786 -0.013326 -0.587004 -0.220152 -0.078954 0.094226 0.008309 0.175088 -0.071431 -0.216390 -0.167897 -0.016863 -0.215107 0.089385 -0.174047 -0.154794 
164 -0.176579 0.095902 0.134135 -0.051077 -0.076590 -0.185851 -0.170557 -0.373556 0.210521 0.118502 0.066981 -0.107939 0.119378 0.016809 -0.230012 -0.066338 0.282087 -0.385686 0.030976 -0.041032 0.016693 -0.041894 -0.522581 -0.264821 -0.022003 0.031055 0.172938 -0.104567 -0.105863 0.087570 -0.132818 -0.202820 -0.074863 0.149436 -0.054148 0.089383 -0.130152 -0.030620 -0.031193 0.244049 0.040090 -0.114679 -0.041583 -0.114578 0.013831 -0.116622 -0.020416 -0.033851 0.216790 0.082180 0.059528 -0.023597 -0.105761 0.067588 0.288274 0.233666 0.203198 -0.085082 0.311395 0.328454 0.074572 0.019042 0.212859 0.190451 0.002851 0.055992 0.219103 0.053945 -0.049049 0.146281 -0.161311 -0.080053 0.190176 -0.118697 -0.185823 0.152425 0.311674 0.164940 -0.103355 0.260613 -0.121985 -0.252059 -0.133846 0.215380 -0.076597 -0.010447 -0.024611 -0.044091 0.131089 0.188136 0.025320 -0.079078 -0.148680 -0.022633 0.145309 -0.101422 0.171844 0.226229 -0.045513 -0.063016 0.047151 0.153408 -0.267707 0.145893 -0.143370 -0.067412 -0.121202 0.393668 0.079089 -0.056971 -0.047368 0.290022 0.183049 0.165805 -0.261177 -0.056726 -0.365533 0.394827 0.050534 -0.095121 0.027919 -0.099297 -0.174376 -0.020694 0.036649 0.069105 -0.152242 -0.029915 
89 -0.079680 -0.064521 -0.060921 0.316551 0.153794 0.120030 -0.180672 -0.116403 0.075556 -0.103327 0.035731 -0.084522 -0.085767 -0.365629 0.354457 0.068252 0.088762 0.138326 0.083323 -0.104537 0.180619 -0.047212 -0.041389 -0.102472 -0.261291 0.032867 -0.161223 -0.114039 0.010372 0.011732 0.235526 -0.023365 -0.031186 0.237615 0.070890 0.003988 0.069524 0.018791 0.197072 0.263901 0.197764 -0.387754 0.034135 -0.116634 -0.188196 0.072686 -0.226894 -0.056023 0.127215 0.166581 0.015499 0.178487 -0.187578 0.044314 0.110126 0.268527 -0.036619 -0.036800 0.380954 0.024088 0.259948 0.120205 0.181732 -0.058599 0.024826 -0.103236 -0.200576 0.059601 0.062602 -0.065751 0.084920 -0.103046 0.218141 -0.087407 -0.109325 0.317674 0.238534 0.146603 -0.269161 -0.135936 0.004697 0.139231 -0.015214 0.075986 0.079537 0.193264 -0.090710 0.351664 0.129728 0.092871 -0.025562 -0.174653 -0.104952 -0.069822 0.028958 -0.002003 0.027705 0.029569 -0.119467 -0.323981 -0.048944 0.121947 -0.195248 0.152142 -0.293498 0.013554 0.030964 0.016603 -0.199154 0.026843 -0.050561 0.251943 0.143849 0.027528 -0.247941 0.099136 -0.169496 0.241700 0.223501 0.015401 -0.119463 -0.288689 -0.288593 -0.026496 0.135225 0.302695 -0.372186 -0.153153 
71 0.262403 0.050308 0.111809 -0.121923 0.022193 0.000995 -0.235139 -0.490491 -0.027382 -0.156708 -0.110093 -0.148120 0.127236 -0.299201 0.104731 0.137356 0.128971 0.141434 0.340701 -0.021864 0.100387 -0.434787 -0.107900 -0.018244 0.073716 0.040940 0.219615 -0.199293 -0.023405 -0.004376 0.276428 0.101833 0.136805 0.046687 -0.112621 -0.004690 -0.000648 -0.110749 -0.082323 0.380595 0.100360 -0.247487 0.207715 -0.080770 -0.082493 -0.224158 -0.057304 -0.103497 0.245483 0.111900 -0.091467 0.057840 -0.139473 0.075552 0.224824 0.235837 -0.144045 0.053919 0.077551 0.149985 -0.048544 0.008968 -0.041304 0.102081 0.236456 0.356262 -0.153666 -0.506516 0.207796 -0.255643 -0.132201 -0.169107 0.068026 -0.137930 -0.157074 0.127002 0.126383 -0.116128 -0.212591 -0.137458 -0.050205 -0.020900 -0.227710 0.137566 0.033967 0.022161 -0.187741 0.273510 0.159433 0.130748 -0.181756 -0.075346 -0.213503 -0.199785 0.209841 -0.142480 0.048803 0.026256 -0.150172 -0.017195 -0.160533 0.143477 -0.295856 0.149036 -0.038057 -0.055238 0.112788 0.133906 -0.063103 0.181924 -0.074761 -0.007580 0.168287 -0.137395 -0.025113 0.233359 -0.038359 0.049610 0.138547 -0.142627 -0.247505 -0.060418 -0.148767 0.020197 -0.088025 0.053602 -0.131004 -0.125379 
189 -0.080532 0.060671 0.329190 -0.071826 0.032305 -0.155114 -0.233397 -0.348860 0.200350 -0.032625 -0.164683 -0.206314 0.121069 -0.349598 -0.112316 0.008724 -0.015281 -0.101046 0.122825 -0.110797 0.070618 -0.007666 -0.099458 -0.265098 -0.126405 -0.148428 -0.168324 -0.048710 0.035307 -0.002280 0.238735 0.039262 0.015181 0.285147 0.160584 0.089633 -0.055430 -0.067684 0.036781 0.108851 0.076335 -0.089840 -0.251645 0.017188 0.083100 -0.023201 -0.101360 0.082713 0.121255 0.096162 -0.089574 -0.119070 -0.155101 0.155410 0.245007 0.003080 0.053482 -0.144840 0.059422 -0.006628 0.195221 -0.157601 0.336868 -0.128095 0.112774 -0.151726 -0.136723 -0.188010 0.136364 -0.007203 0.287786 0.005098 0.153554 0.127088 0.004670 -0.092693 0.274778 -0.127806 -0.294645 0.118191 -0.402184 0.030538 -0.242834 0.025512 -0.061563 -0.393276 -0.196508 0.152909 -0.039504 0.207920 0.236337 -0.105560 0.048863 -0.223773 0.027131 -0.284560 -0.033580 0.046312 -0.249583 -0.247551 0.037479 0.016700 -0.205048 0.166104 -0.018707 -0.346231 -0.039019 0.174527 -0.109496 0.160229 0.054828 0.259049 0.006263 0.089181 -0.035947 -0.030363 -0.093908 -0.075354 0.161278 0.068325 -0.045709 -0.212618 0.055411 -0.147796 -0.197516 -0.012262 -0.195416 0.030629 
165 -0.155569 -0.020132 -0.056139 -0.032759 -0.190156 0.052884 -0.251737 -0.429711 0.220592 0.040267 -0.138663 -0.129530 0.240696 -0.293659 0.011950 0.063405 0.231249 0.009391 -0.073955 -0.105007 0.107262 0.218823 -0.325995 -0.211831 0.012559 0.020480 -0.153006 -0.026312 0.031967 0.019888 0.170061 0.115029 -0.108447 -0.122317 0.124179 0.111974 0.068919 -0.080389 0.065270 -0.011901 0.229571 -0.184284 -0.135344 0.089041 -0.111704 -0.215549 -0.235972 -0.099403 -0.110176 0.210271 0.044064 0.096203 0.112114 0.135452 0.249988 0.443649 0.068294 0.070633 -0.017336 0.103122 0.208301 -0.029219 0.016491 0.405969 0.370925 -0.185994 0.110461 -0.142675 0.134281 -0.124217 -0.019058 0.008334 0.047497 0.083035 -0.044992 -0.087646 0.080429 0.048939 0.055414 0.094587 -0.586472 0.094408 -0.263861 -0.140174 0.111081 -0.054166 0.139614 -0.069371 0.121751 0.033388 -0.123619 -0.131571 -0.221355 -0.122519 0.007933 -0.268325 0.036332 -0.090263 -0.100818 -0.003572 0.141864 0.162483 -0.213724 0.180475 -0.264949 -0.062886 -0.115437 0.093113 -0.013702 0.051151 -0.107418 0.119610 -0.098008 0.096629 -0.225220 -0.030731 -0.116840 0.311250 -0.060697 -0.031707 0.131960 -0.072366 -0.172431 0.230469 -0.100105 -0.069401 -0.192945 0.004609 
335 0.026702 -0.073960 -0.189581 0.113127 -0.081343 -0.181636 -0.017342 -0.419955 0.410328 0.201263 0.065100 0.050850 0.235594 -0.094699 -0.066622 -0.068346 0.199246 0.292480 0.229814 -0.182301 0.196443 0.090133 -0.189010 -0.021133 -0.008663 -0.422979 -0.058252 -0.174474 -0.133137 0.127538 0.287183 0.197966 0.041203 -0.003225 -0.176715 0.210357 -0.164350 0.020035 0.086275 -0.126436 0.117237 -0.161739 0.112828 0.092226 -0.127353 -0.034763 -0.149618 -0.091895 0.103034 -0.077758 0.055623 0.013818 -0.176848 0.071062 0.365113 0.112603 -0.121630 -0.164951 0.188191 -0.005802 -0.256070 0.103184 0.453683 0.008737 0.086646 -0.064606 0.081086 -0.130205 0.104016 -0.040390 0.151753 -0.210919 0.141665 0.100665 0.193481 0.403279 0.211061 -0.142547 -0.177318 -0.001048 0.251845 -0.024654 -0.235122 0.104002 -0.012172 0.117756 0.266555 0.156750 0.242909 0.109871 -0.210523 -0.287984 0.159378 -0.050690 -0.032224 -0.121691 0.045941 -0.133991 -0.027195 -0.044818 0.160752 -0.017214 -0.081967 -0.158996 -0.067298 -0.324720 -0.002434 0.274421 0.292705 -0.045800 -0.010532 -0.059659 -0.221565 0.165801 0.022863 0.183096 -0.115577 0.028334 0.133358 -0.016790 0.035139 0.042548 -0.191079 -0.039156 -0.158058 0.206785 -0.053152 0.019667 
380 -0.018084 0.004056 0.094057 0.203653 -0.155187 -0.178880 -0.063207 -0.298855 0.309133 0.193201 -0.152176 0.176713 0.071447 -0.032040 -0.070587 -0.066604 0.188180 -0.051606 0.147606 -0.218308 0.098026 0.043645 -0.091321 -0.088101 0.005524 -0.394563 -0.113196 0.024533 -0.124606 0.062167 0.028002 0.008854 -0.273844 0.212501 -0.247975 -0.007392 -0.190319 0.030504 -0.110852 0.151520 -0.092155 -0.191961 0.107684 0.140611 0.050912 -0.048206 0.077845 -0.156867 0.271970 0.046074 -0.014008 0.019357 -0.183923 0.184383 0.328799 0.203926 0.103287 -0.040117 0.121457 -0.127109 -0.181832 0.256806 0.293167 0.018985 0.202995 0.011746 0.172967 -0.164640 0.001636 -0.282543 0.315385 0.035612 0.018134 0.031592 -0.040611 0.222565 0.295195 -0.141520 0.149420 0.117109 -0.080825 0.213817 -0.262149 0.255094 0.065562 0.258090 0.034195 0.097831 0.278451 0.119020 -0.360122 -0.241778 0.159765 -0.064105 0.073205 -0.067161 0.039544 0.060674 -0.040414 -0.060107 0.127849 0.175333 -0.186674 -0.143668 -0.021331 -0.168439 -0.112126 0.125339 0.125084 0.108877 0.077150 0.125793 -0.090373 0.164735 -0.166449 0.217193 0.023848 0.210021 0.248814 0.165166 0.101181 -0.312612 -0.242194 0.093991 -0.093469 0.116844 -0.053013 -0.088187 
182 -0.241767 0.115578 -0.055977 0.035764 0.006763 -0.055046 -0.179103 -0.458547 -0.158141 -0.053216 -0.084437 -0.067928 0.141245 -0.317852 0.027767 0.052871 0.052791 0.140001 0.172078 -0.162223 0.068799 0.168823 -0.313765 0.018231 0.179337 0.018215 -0.066248 -0.034492 0.190307 0.232394 -0.014892 -0.093781 -0.102157 0.184425 -0.194153 -0.120030 -0.330385 0.132891 0.185534 0.157930 -0.173841 -0.172182 0.135862 0.011631 0.242181 -0.204636 -0.474132 -0.117972 0.118867 0.181553 0.008590 0.228259 -0.018529 0.299566 0.035615 0.399651 0.063739 -0.182779 0.083662 -0.098814 -0.069763 0.139706 -0.086779 -0.381338 0.013090 0.022179 -0.140215 0.006960 0.180873 0.217158 0.162082 -0.294885 0.146260 -0.055401 -0.016710 -0.199355 0.285307 -0.376447 -0.140182 -0.145081 -0.056505 0.166855 -0.083365 -0.037619 0.182842 -0.201920 0.048812 -0.064291 -0.030335 0.170276 0.167597 -0.046190 0.076004 0.308261 -0.004867 -0.176232 -0.189531 -0.343851 -0.032829 -0.234130 0.172853 0.218021 -0.016397 0.138497 0.113766 -0.286613 -0.164947 0.058363 0.064326 0.136566 -0.027800 0.117052 0.145892 0.084580 -0.152993 -0.012951 -0.051660 0.189873 0.274240 0.069627 -0.024503 0.017021 -0.042001 0.207322 -0.116281 0.194850 -0.094698 0.025561 
84 -0.026787 0.260020 -0.105164 -0.042508 -0.020542 0.001691 0.147749 -0.366058 0.230566 0.101036 -0.093663 -0.110891 0.234952 -0.296145 -0.193980 -0.078159 0.018892 0.043477 0.315926 0.144675 0.122238 0.072979 -0.174148 -0.066216 -0.165336 -0.211437 0.007363 0.099942 0.383836 -0.002653 -0.020626 -0.070183 -0.221126 0.009581 -0.328779 0.316488 -0.147317 0.237623 0.159071 0.146891 0.071250 -0.290333 0.239843 0.076797 0.131668 0.127688 -0.026679 -0.054247 0.024798 0.065962 -0.191424 0.039448 -0.214385 0.075106 -0.103400 0.039612 -0.171941 0.204532 0.085508 0.234671 0.051343 0.348773 -0.233846 -0.040190 0.295547 0.007999 0.118252 0.315652 0.424520 -0.024795 -0.136914 -0.103381 -0.053024 -0.058022 0.225246 0.288442 0.219502 -0.095010 -0.075225 -0.096205 -0.137139 -0.134301 -0.206158 0.138008 0.212149 0.023762 0.115521 -0.012882 0.034039 0.149785 0.107829 -0.260481 -0.039836 0.135914 0.057301 -0.245134 -0.105081 -0.019407 -0.029804 -0.098972 0.008156 0.148871 -0.065971 0.258137 0.074365 0.025016 -0.123353 0.070541 0.126092 -0.159648 -0.021426 0.176923 0.076086 -0.321667 -0.251269 0.127785 -0.247905 0.303678 -0.028858 0.275478 -0.283522 0.054111 -0.077315 0.278856 -0.048623 0.202846 -0.162002 0.078309 
175 -0.012595 0.102820 0.032677 0.029195 -0.166260 -0.188352 -0.009153 -0.121694 -0.014635 0.153532 -0.050378 0.074313 0.146808 -0.302848 0.065411 -0.243210 -0.078828 0.340586 0.148380 -0.241650 0.030153 -0.208647 -0.172855 -0.324594 0.007618 -0.086191 -0.044470 0.179288 0.079929 -0.159464 0.102908 -0.050986 0.230883 0.081484 -0.032502 0.199855 -0.011051 -0.028658 0.565405 -0.097841 -0.233289 -0.563774 0.005866 0.346743 -0.097470 -0.105137 -0.140677 0.018017 0.150654 -0.237753 0.048327 0.114870 -0.176374 -0.075713 -0.111078 0.494602 0.189418 0.142129 0.354939 -0.076648 0.060039 0.141614 0.094657 0.186626 0.163201 0.285785 -0.057377 -0.030574 0.013480 0.020191 -0.080015 -0.297563 0.190743 0.158193 -0.142719 0.063606 0.268892 0.031365 -0.142653 -0.214915 0.037549 -0.221225 0.166929 0.100440 -0.003280 0.077605 -0.126599 0.094806 0.045370 -0.210571 0.100197 -0.286158 -0.131008 -0.175720 0.051567 -0.240565 0.165873 0.203443 -0.135328 -0.137956 0.001151 0.282065 -0.137074 0.254764 -0.161231 -0.168387 0.069585 0.129734 -0.151125 0.179911 -0.124414 0.092596 0.204282 0.113925 -0.217188 -0.062977 -0.195026 0.242420 0.103561 0.146014 -0.050944 0.008663 -0.220783 0.122401 0.041895 0.150037 -0.246577 -0.156971 
224 -0.170852 0.402859 0.039551 0.267158 -0.208880 -0.044386 -0.270215 0.019705 -0.015902 0.061702 -0.021817 -0.100496 0.162125 -0.209765 0.050872 0.048432 -0.016005 0.049987 0.219748 -0.193204 0.057225 -0.090536 -0.310032 -0.185927 0.146972 -0.023943 -0.020967 -0.065194 0.108327 0.006070 0.031705 0.174913 -0.268530 -0.186621 0.216612 0.228520 0.008345 -0.034305 0.172228 0.040838 0.193291 -0.180408 -0.054098 -0.036352 -0.095154 -0.029823 0.213402 0.155021 -0.003679 0.255465 0.121653 -0.003975 -0.158196 0.243290 0.249042 0.363193 0.173521 -0.083667 0.062968 0.084936 0.152123 0.179903 0.073071 0.229795 0.236809 0.020811 -0.048807 -0.203881 0.056505 -0.080358 -0.072733 -0.179190 0.172863 0.135295 -0.001806 0.078627 0.158155 -0.144334 0.018431 0.045468 -0.347846 0.022957 -0.179472 -0.039676 -0.263114 -0.348064 -0.061277 0.001120 0.384842 0.142179 -0.173431 -0.493001 0.212400 0.250892 0.144792 -0.385792 -0.116573 0.104090 -0.229759 -0.245068 -0.037413 -0.041094 -0.014624 0.169838 -0.094865 0.021248 -0.022027 0.199683 0.063655 -0.180368 0.039536 0.361623 0.160424 0.176131 -0.072716 -0.105525 -0.106018 -0.076617 0.053069 0.196560 -0.002767 -0.218247 -0.261902 0.260889 -0.115599 -0.121360 -0.095371 0.068306 
416 -0.310924 0.371410 -0.057896 0.072750 0.218768 -0.395540 -0.141016 -0.342147 0.183004 0.202016 -0.079796 0.070275 0.219080 0.092251 -0.251305 -0.309340 0.133938 -0.005431 0.148011 -0.029944 -0.161609 0.113052 -0.031603 0.019336 0.195702 -0.198920 -0.088544 -0.243533 0.190159 0.053161 0.124746 -0.123634 -0.136695 0.171898 -0.227740 0.012559 0.085814 0.212176 -0.100195 0.084850 0.233380 -0.106858 0.053139 0.180589 0.045709 -0.191287 -0.286645 0.087586 0.110679 0.212857 0.104015 0.270788 -0.044314 0.019282 0.061268 0.096196 -0.259607 0.124443 0.072602 0.103743 -0.267638 -0.090306 0.178346 -0.161757 0.076079 0.050028 -0.105376 -0.406923 0.087715 -0.293283 0.168473 -0.058897 0.378709 0.053928 0.159374 0.391943 0.385500 -0.082676 0.079203 0.052115 -0.014313 0.004966 -0.039271 0.126110 0.024049 0.070647 -0.044478 0.324034 -0.131697 -0.122103 0.094770 0.075712 0.098476 0.038052 -0.127741 -0.190903 0.143843 0.133220 -0.117370 -0.062174 0.058017 -0.021306 -0.196087 -0.050617 -0.260820 -0.465651 0.052795 -0.105791 0.035997 0.233067 -0.055431 0.198422 0.028987 -0.015956 -0.224591 -0.147823 0.066817 0.121541 -0.010677 0.221877 0.216272 0.040695 -0.256696 0.169853 -0.239574 0.070963 -0.161251 -0.209315 
314 0.059258 0.282382 0.123771 0.518160 -0.308208 -0.147205 -0.004082 -0.308806 0.146003 0.271678 -0.204944 -0.019788 -0.031402 0.077027 -0.345898 -0.307892 -0.072061 0.220770 0.209631 -0.271291 -0.050396 0.260684 -0.246320 0.145625 -0.092005 -0.441601 -0.132665 0.059379 -0.173926 0.061047 -0.010713 0.085172 0.218390 0.254565 -0.102432 0.029943 -0.298637 0.151589 -0.012693 0.095111 -0.056437 -0.152454 0.179777 0.161159 -0.056211 -0.355952 -0.335985 0.194448 0.067245 0.151952 -0.172045 -0.017905 -0.194783 0.081180 0.052479 -0.043478 -0.184935 -0.147561 0.183750 -0.169357 0.002051 0.421963 0.206307 0.145458 0.100265 -0.087236 0.005072 -0.148301 0.048402 -0.389021 0.277609 -0.075631 0.066362 0.024994 0.154180 0.105370 0.094287 0.050610 -0.113934 0.055085 -0.279736 0.282761 -0.195246 0.242145 0.002119 -0.169814 -0.041190 0.033528 -0.149832 0.138253 -0.071499 -0.192807 -0.003525 -0.000030 0.222336 -0.064302 0.012152 0.051031 -0.185505 0.042703 0.093759 0.042346 -0.101423 -0.152693 -0.111329 -0.221951 0.229001 0.158988 0.078765 -0.117339 0.288717 0.173616 -0.107652 0.147064 -0.349911 0.109242 -0.210090 0.091608 0.295591 0.000024 0.081675 0.159317 -0.130915 0.049531 -0.169038 0.129478 0.018327 -0.165443 
323 -0.137593 0.018753 -0.261088 -0.185474 -0.027841 -0.148244 0.229724 -0.664493 0.215210 -0.052455 -0.115983 -0.060051 0.057808 -0.010869 -0.120547 -0.185281 -0.075054 -0.029449 0.183015 -0.331702 0.007803 -0.000706 -0.327993 0.019694 -0.011581 -0.390282 0.317898 0.095419 0.227456 0.006112 -0.149597 -0.080833 0.121162 0.230904 0.056302 0.020362 0.007136 0.194885 -0.028751 -0.114452 0.008269 -0.079099 0.263318 0.041542 -0.338702 0.021915 0.027141 -0.117133 0.245862 0.252389 0.035991 -0.197465 0.040996 -0.126546 0.199623 0.377163 0.036365 0.008051 0.268028 0.119818 -0.254013 0.035178 0.032644 0.147510 0.243902 0.040465 -0.396619 -0.084012 -0.094172 -0.183001 0.060235 -0.229796 0.429640 0.108860 -0.040318 0.374602 0.137905 0.148005 0.008070 0.113327 -0.245317 0.167208 0.219531 0.270425 -0.049273 0.067506 -0.233137 -0.265304 -0.109114 0.072338 0.332534 -0.197144 0.135556 -0.245620 0.018959 -0.506306 -0.202802 0.107473 -0.043372 -0.073121 0.327156 0.026469 -0.296517 0.172175 -0.083915 -0.286081 -0.133384 0.250172 0.316442 0.064894 -0.414574 0.388027 0.245906 -0.018947 -0.215600 -0.210720 -0.251129 0.156946 0.196707 0.016734 0.306052 0.127870 -0.011784 0.072035 -0.194330 0.203355 -0.270878 -0.157420 
218 -0.255244 0.362997 -0.017713 0.122070 0.063280 0.046894 0.147522 -0.461931 0.033595 0.247694 0.146618 0.123833 0.288102 -0.100354 -0.049117 -0.325097 -0.178286 0.022410 0.085120 0.050797 0.250806 -0.066757 -0.075290 -0.157950 0.134564 0.001760 0.129269 0.036200 0.099259 0.068120 -0.285750 -0.037463 -0.179728 0.072332 -0.050122 0.232418 -0.089312 -0.008867 0.173909 0.089579 -0.350887 -0.117214 -0.165673 0.018695 0.308299 -0.352701 -0.301982 -0.183016 0.300384 0.137706 0.193087 0.034784 -0.013149 0.007094 -0.103413 0.110859 -0.004756 -0.060787 0.244037 0.274253 -0.067411 0.161423 0.212101 0.014350 0.167761 -0.084376 0.025449 0.253839 0.182769 0.015987 0.197303 -0.340692 0.186093 0.114461 -0.161200 0.185742 0.055419 0.246937 -0.165268 -0.023445 -0.166028 0.001043 -0.170990 0.158620 -0.095311 0.080248 -0.146546 0.321658 0.155294 0.344718 0.027475 -0.234738 -0.184045 -0.095671 0.062198 -0.015821 -0.197617 -0.119040 -0.085960 -0.415237 -0.096806 0.108561 -0.227166 0.274581 -0.203351 -0.168791 -0.047844 -0.004612 0.146100 -0.164113 -0.108738 -0.098421 0.361038 -0.135044 -0.338157 -0.126495 -0.169543 0.390809 -0.001265 0.077168 -0.057842 -0.016905 -0.119874 0.280237 -0.210050 0.213605 -0.152462 -0.089585 
156 -0.006699 0.005045 0.041353 0.089519 0.096554 0.050283 -0.020285 -0.300386 0.433989 -0.014906 -0.035270 -0.063606 0.038881 0.014552 0.007679 -0.311164 0.151634 0.177720 0.188983 -0.086488 -0.010630 -0.002561 -0.099513 -0.032574 -0.048768 -0.136383 0.007725 -0.016020 -0.089158 -0.178624 0.058569 0.070136 -0.099482 0.058764 -0.224212 0.365281 0.276640 -0.077164 0.214335 0.115649 0.273941 -0.185335 -0.007359 -0.012010 0.112113 0.111327 0.042212 0.189593 0.204262 0.340218 0.152976 0.189623 -0.128389 0.353920 0.203869 0.239855 -0.072947 -0.050650 0.136829 -0.062495 0.208297 0.060106 0.013175 0.272059 0.096344 -0.068056 -0.308685 0.017688 0.008740 0.135487 -0.028687 -0.159063 0.197548 -0.028223 0.249388 0.134467 0.253119 -0.177681 -0.181906 0.000258 -0.024471 -0.117642 -0.376102 0.059921 0.108961 0.144337 0.032892 -0.020290 0.031060 0.078797 0.113152 -0.100544 0.090836 -0.050977 0.005657 0.119908 -0.106311 0.166800 -0.031464 -0.139927 0.029144 0.213221 -0.059546 0.189106 -0.490788 0.151985 -0.001935 0.004709 -0.084051 -0.102179 -0.080491 0.365271 0.041407 -0.085123 -0.314766 0.020736 -0.124367 0.167674 0.125598 -0.052225 -0.022084 -0.185854 0.002880 0.085413 0.021988 0.225892 -0.097558 -0.271502 
149 0.014110 0.275773 -0.072833 0.028648 0.039500 -0.064035 -0.167070 -0.406031 0.075025 -0.114266 -0.084732 -0.287671 0.260508 -0.053947 0.130955 -0.139230 0.182094 0.017427 0.279738 -0.120896 -0.119680 0.191789 -0.333551 -0.100183 0.070244 0.125933 -0.167345 -0.080402 0.139011 0.103114 0.287181 -0.124852 -0.080836 0.266651 -0.323702 0.185568 0.043870 -0.066073 0.245055 0.189822 0.094169 -0.188422 0.324561 0.119753 0.248062 -0.298604 -0.036828 0.137141 0.106702 0.109094 -0.046493 0.001068 0.068439 0.126845 0.108932 0.288941 0.001499 -0.048432 -0.094812 0.129470 0.054491 -0.110689 -0.321389 -0.093753 -0.076603 0.056654 -0.006186 0.195834 0.177392 0.014358 0.057326 -0.191791 -0.005826 0.157610 0.129400 0.055987 0.123561 -0.008858 -0.390708 0.081116 -0.011041 -0.012034 -0.169752 -0.095704 0.026420 0.127074 0.030026 -0.070254 -0.059902 0.103097 -0.064632 -0.135136 0.027812 -0.029270 0.205729 -0.155431 -0.348998 -0.281717 0.221086 -0.147886 0.189122 0.342585 -0.120110 -0.015881 0.039626 -0.349905 0.080024 -0.244170 0.217865 0.032807 -0.064059 0.503011 -0.007953 0.108416 -0.213315 0.066158 -0.107388 0.046893 0.053137 0.304259 -0.073265 0.007961 0.071591 0.172564 0.021598 0.196380 -0.135377 -0.008036 
74 -0.322001 0.190088 0.334768 0.000597 -0.268435 -0.143592 -0.083885 -0.286577 0.173409 -0.127229 -0.120572 -0.112393 0.203144 -0.077710 0.100105 -0.099516 0.090989 -0.092914 0.277887 -0.125597 0.156098 -0.054545 0.013417 0.100555 -0.110462 0.164054 -0.043454 -0.175325 0.092237 0.006646 0.092816 0.054910 0.115233 0.010519 0.180729 0.257721 -0.026442 0.076708 0.208998 0.232691 -0.024676 -0.372872 -0.001031 -0.219149 -0.005290 -0.009150 -0.002048 -0.023644 0.143856 0.264402 0.043292 -0.115274 0.003628 0.014961 0.109835 0.125841 -0.303724 0.115181 0.144208 0.086411 -0.061379 0.024111 0.336564 -0.160535 -0.003511 0.113155 -0.091502 -0.032450 0.030213 0.043357 -0.013309 -0.220150 0.101499 -0.103506 -0.172345 -0.094906 0.279964 0.037645 -0.039921 0.070790 -0.200432 0.057587 -0.355353 0.196618 -0.055780 -0.051147 0.122158 0.138227 -0.161805 0.098730 0.012026 -0.163225 0.266635 0.188844 0.244497 -0.208548 -0.100991 0.019719 -0.178760 0.136608 0.095818 0.055613 0.048904 0.166469 -0.113005 -0.389735 -0.009163 0.188245 -0.376362 0.210621 0.042336 0.093634 0.060374 0.114125 -0.414146 -0.009474 -0.108759 0.142179 -0.024588 0.220602 -0.154312 -0.320094 -0.171764 -0.092271 0.124887 0.335951 0.017684 -0.199154 
582 -0.029745 0.125638 -0.084795 0.022873 -0.183209 -0.315613 -0.110373 -0.637141 0.085734 0.000915 -0.028761 0.105710 0.115051 -0.021812 0.014331 0.048733 0.037865 0.202829 0.186884 -0.238486 -0.269178 0.144790 -0.041046 -0.045644 0.380839 -0.142870 0.419777 0.233344 0.068770 0.086096 0.123550 -0.112819 -0.057043 0.230371 -0.103464 -0.098140 -0.018490 0.082781 0.040899 0.143825 0.387542 -0.093291 0.266379 0.327257 0.127143 0.159543 -0.399046 -0.016967 0.079243 -0.099164 0.004535 0.082849 -0.185029 0.115142 0.157880 0.256859 0.174319 0.066935 0.400769 0.223148 0.100421 0.371185 0.408123 -0.058127 -0.010069 0.347929 -0.062556 -0.050507 0.144258 -0.501242 0.398574 -0.159447 0.092459 0.193189 -0.038156 0.099670 0.008953 0.195155 -0.080806 -0.045726 -0.389555 0.109509 0.162887 0.211132 -0.196229 -0.012937 0.158370 0.355580 -0.244335 -0.023005 -0.253586 -0.365349 0.351357 -0.215980 0.043596 0.050107 -0.085633 -0.325624 -0.317746 0.030697 -0.107465 -0.091737 -0.098003 0.012636 0.080597 -0.142850 0.203259 0.337268 0.220775 0.113392 -0.322074 0.096722 -0.006063 0.214598 -0.319467 -0.144144 -0.218429 -0.021003 0.095272 -0.171604 0.191536 -0.154427 0.153874 0.188270 -0.283026 0.282349 0.053493 -0.167600 
259 0.089485 0.061384 0.097960 0.086817 0.019569 0.059510 -0.207981 -0.271768 0.061424 -0.030874 -0.024554 0.073971 -0.022593 -0.277091 0.024733 0.027370 0.294713 0.187022 0.192362 -0.232375 0.222301 -0.219119 -0.146343 0.106948 0.053614 -0.044011 0.155543 -0.188689 0.068751 0.228154 0.223428 0.202159 0.023736 -0.000830 -0.149955 -0.185351 0.071000 -0.267605 0.144045 0.169953 0.110641 -0.316648 -0.100613 0.069883 0.080584 -0.006397 -0.181626 -0.019260 0.217843 0.157101 -0.076806 -0.073751 0.022938 0.073394 0.266256 0.236049 0.024073 -0.110574 0.038132 0.062695 -0.067472 -0.014426 0.050833 0.001381 0.201371 0.257175 -0.217452 -0.102826 0.326878 -0.142182 -0.128886 -0.205360 0.217565 0.158375 -0.173693 -0.119591 0.030759 -0.197922 0.075424 -0.124061 -0.256235 -0.196601 -0.242008 0.261215 -0.032697 0.082834 0.056738 0.368492 -0.094553 -0.091178 -0.183354 -0.073924 0.105317 0.099781 0.069617 -0.215176 0.039221 0.179605 -0.190647 -0.224665 -0.008753 0.342609 -0.248460 -0.099222 0.125226 -0.145489 -0.033315 0.163903 -0.018293 0.031789 0.039033 0.017557 -0.106087 -0.147472 -0.221570 0.114288 -0.253197 0.361509 0.264585 -0.119460 0.043768 -0.376047 0.088589 0.036387 0.074777 -0.058505 -0.082463 0.106352 
44 -0.203301 0.066796 0.029096 0.036121 -0.128511 0.183990 -0.065991 -0.557990 0.100125 -0.252251 -0.197840 -0.327279 0.052069 -0.022834 0.056707 0.009065 0.058847 0.189154 0.177022 -0.314103 0.158049 0.049167 -0.086049 -0.219638 0.237927 0.170324 -0.187213 0.127328 -0.046994 -0.277332 0.250540 0.035046 -0.229296 0.253187 -0.163819 0.151237 -0.108528 -0.080126 -0.030507 -0.074126 0.001585 -0.329006 -0.171171 0.124918 0.294721 -0.341597 0.032895 0.079904 -0.056388 0.166918 0.012224 0.121218 -0.084504 0.249426 0.259587 0.377227 0.056071 -0.224142 0.369036 0.323124 -0.063829 0.128297 0.126800 0.139333 -0.125812 -0.021947 -0.042081 -0.030156 0.069995 -0.046890 0.019307 -0.097040 -0.095615 -0.222404 0.119175 0.334801 0.177343 0.035286 -0.078524 -0.006511 0.020223 -0.026142 -0.187452 -0.088451 -0.086477 0.002254 -0.143651 0.171248 0.128878 -0.171434 0.032586 0.036283 0.089234 -0.248744 0.203098 -0.122597 -0.153368 0.108040 0.107817 -0.149330 -0.132984 0.268135 -0.115237 0.176494 -0.091946 -0.224434 0.105317 0.216724 -0.304194 0.000709 0.003268 0.036394 -0.082114 0.247959 -0.179623 -0.246186 -0.188751 0.161880 -0.095125 0.191013 0.301708 0.061911 0.044285 0.024140 0.203622 -0.060817 0.045010 -0.244397 
382 -0.453515 0.377045 -0.256870 -0.033788 0.032062 -0.006853 -0.153981 -0.264290 0.211711 0.231029 -0.103545 0.228819 0.096396 -0.208420 0.187228 -0.105223 0.268501 0.095142 -0.174850 -0.167808 -0.024125 0.148346 -0.230148 -0.019504 -0.007074 -0.291683 0.322751 -0.040964 0.265110 0.058631 0.043352 -0.192422 -0.035119 -0.048387 -0.166377 0.005778 -0.302203 -0.067204 -0.180674 0.052442 0.109383 -0.184875 -0.015582 0.346867 -0.079849 0.082544 -0.064492 0.085511 0.140441 0.051786 0.356005 0.127258 -0.483389 0.061967 0.146465 -0.071509 -0.092500 -0.232557 0.498841 0.119332 -0.187137 0.322561 0.082699 0.036489 -0.110147 0.003363 -0.074109 -0.080915 -0.022040 -0.017375 -0.012905 -0.091091 0.026235 -0.065334 0.245982 0.231469 -0.002182 -0.119503 -0.074101 -0.143261 -0.042779 -0.158666 -0.258148 0.264111 0.011323 0.109320 -0.112883 0.062261 0.064788 0.108551 -0.064121 0.045177 0.176565 -0.270038 -0.042560 -0.230520 0.011070 -0.112860 -0.016333 -0.155558 -0.046489 -0.213105 -0.440393 0.103949 -0.114388 -0.424863 -0.131499 0.316684 0.328824 0.425649 -0.028836 0.292996 -0.056138 0.394873 -0.112435 0.016518 0.056175 0.030985 -0.233921 0.264559 0.114971 -0.091400 0.006278 0.130989 -0.020875 0.235335 -0.243355 0.033372 
117 -0.016500 -0.360914 0.038255 -0.147308 -0.095034 -0.190110 -0.113668 -0.460718 0.119169 0.209739 0.053855 0.239451 0.058903 -0.418491 -0.091650 -0.005672 0.209608 0.031174 0.212163 -0.072963 0.095478 -0.102149 -0.163833 -0.094196 -0.177609 -0.088834 0.004238 -0.156853 0.297495 -0.086402 0.174851 -0.143135 -0.222595 -0.021669 0.050140 0.191543 0.064775 -0.205892 -0.123873 0.120863 0.013024 -0.328618 0.121993 -0.264956 -0.134544 -0.096442 -0.018333 0.070644 0.207888 0.196152 0.135384 -0.103888 0.124348 -0.078201 0.148668 0.067104 -0.400395 -0.135978 -0.022104 0.048218 0.167568 0.301857 0.115627 -0.184180 0.234454 0.214299 0.141582 -0.019526 -0.065216 0.015499 -0.093565 0.070884 0.137252 0.178288 -0.097154 0.063281 0.204181 -0.096912 -0.168195 -0.040609 -0.340238 -0.027522 -0.279670 0.155566 0.153844 -0.052158 -0.105532 0.255625 -0.022719 0.056018 0.067848 0.047793 -0.052996 -0.023995 0.187578 0.053294 -0.077232 0.181035 -0.143615 0.106758 0.172914 0.092956 -0.033538 0.050210 -0.218223 -0.245784 0.147548 0.225995 0.198750 0.070633 0.168690 0.318021 0.106213 -0.247637 -0.285855 0.147764 -0.290667 0.199675 0.076186 -0.256287 0.085265 0.079712 -0.041015 0.082288 -0.000015 0.236250 -0.228075 0.157472 
389 0.033948 0.348674 -0.068598 0.058370 -0.069718 0.011310 0.008617 -0.362653 0.197825 0.231195 -0.188773 -0.077356 0.184552 -0.045471 0.307639 -0.132016 0.020252 -0.046379 0.200396 -0.301516 0.239663 -0.051569 0.229756 -0.177397 -0.101392 -0.512160 0.063815 -0.067339 0.061770 0.062009 0.012443 -0.023981 0.013219 0.083933 -0.142140 -0.064915 -0.098777 0.211780 0.136771 0.011723 0.027093 -0.036789 0.037298 -0.088571 0.041742 -0.138149 0.011070 -0.063873 0.313282 0.303039 0.043888 0.291589 -0.180616 0.360981 0.089317 0.046606 -0.192633 -0.145149 0.109666 -0.058033 0.117200 0.130980 0.141517 0.173083 0.167269 0.019474 0.167503 -0.047493 0.141237 -0.348823 0.232261 -0.025250 0.258004 0.076785 -0.010690 0.039894 0.054031 -0.056278 -0.218385 0.127773 -0.161061 -0.079297 -0.169330 0.151990 0.107283 0.098159 0.107206 0.068089 -0.089515 -0.342179 -0.153227 0.053319 -0.009399 0.043820 0.115885 -0.132738 -0.051070 -0.049832 -0.179887 -0.131169 0.003266 -0.112823 0.151249 0.268685 0.050957 -0.204203 0.101249 0.381810 0.149119 0.251148 -0.007135 0.401442 0.043751 0.242492 -0.259939 0.103841 -0.146306 0.044570 -0.138521 0.098089 0.114834 0.079132 0.036152 0.091610 -0.167687 0.093174 -0.019958 -0.305870 
64 -0.013662 0.036657 -0.083949 -0.027143 -0.134741 0.021984 -0.003969 -0.331602 0.033527 -0.016050 0.043183 0.190886 -0.119209 -0.130015 0.054905 -0.016530 0.200107 0.010339 0.162172 -0.173956 -0.087938 -0.069404 -0.211811 -0.244465 0.146767 0.085511 -0.321621 -0.089103 -0.131511 0.158310 0.002714 -0.071882 0.004335 0.063516 0.167175 0.141142 -0.058307 -0.072415 0.107358 -0.114503 0.041965 -0.161021 0.015441 0.038024 0.025692 0.033900 -0.203234 -0.028249 -0.086451 0.296164 -0.018052 -0.242423 -0.143527 0.312218 0.179690 0.154067 0.293677 -0.128422 0.208129 0.142467 0.022334 0.216790 0.163229 0.268806 0.273853 0.120940 0.052209 -0.133759 0.019069 -0.128000 0.252973 -0.295105 0.200628 0.091084 -0.073946 0.061105 0.293587 -0.143992 -0.221285 -0.015566 -0.087475 -0.130343 -0.118815 0.047924 -0.091955 -0.181805 -0.217044 0.238849 0.095683 0.099115 0.138918 0.095364 -0.159218 -0.254247 -0.247769 0.028125 -0.078208 0.003889 -0.310151 -0.166999 0.145004 0.271182 0.056491 -0.069089 -0.098573 -0.403065 -0.023883 0.203027 -0.020861 0.087818 -0.193939 0.215947 0.220765 0.051058 -0.268924 -0.145027 -0.482758 0.170038 0.284402 -0.017801 0.215235 -0.245714 0.004082 0.349951 -0.030046 0.241734 -0.057525 0.043564 
319 -0.196268 0.308061 -0.324470 0.176194 -0.183045 -0.343924 0.158022 -0.213699 0.232712 0.118344 -0.121663 -0.162213 0.140865 -0.140541 -0.310092 -0.341692 0.094205 0.124741 0.272221 -0.107976 -0.063460 -0.033158 0.074011 -0.066832 0.211832 -0.130673 -0.044252 -0.163553 0.041589 -0.014481 0.256802 -0.038233 -0.192770 0.240557 -0.325432 0.032124 -0.193002 0.314977 0.119218 -0.147109 -0.025442 -0.094403 -0.111224 0.119393 0.204728 -0.258152 -0.155690 -0.051858 0.389873 0.287215 0.054549 0.238202 0.080312 0.077259 0.206773 0.126013 -0.106012 -0.002484 0.134716 0.402711 0.007977 0.426661 0.121772 0.036937 0.132382 0.180312 -0.201894 -0.125968 0.046060 -0.362587 0.057407 -0.068560 0.245980 0.026067 -0.145839 0.188611 0.146341 0.018310 0.180177 0.010832 -0.273278 -0.088399 -0.185981 0.022947 -0.129603 0.001488 0.081511 -0.076948 -0.287866 0.151607 -0.129841 0.027004 0.248461 0.149597 -0.114386 0.019149 0.072416 -0.060117 -0.212363 -0.174665 0.152050 -0.019718 -0.326798 0.012129 -0.007829 -0.436617 -0.048604 0.170196 -0.021768 0.077914 0.025698 0.234114 -0.072251 0.270896 -0.134193 0.001925 0.054374 -0.203083 0.022305 -0.123817 0.128071 0.202130 0.133289 0.075721 -0.038252 -0.111622 -0.177633 -0.312720 
207 0.120108 0.287451 0.215340 -0.173604 -0.369271 -0.130774 -0.185044 -0.751598 -0.157193 -0.167917 -0.183474 0.028396 0.072950 -0.364199 -0.104553 -0.230207 -0.087630 0.056082 -0.017744 -0.180768 0.149374 0.144373 0.027918 -0.170745 0.037095 0.080562 0.244854 -0.011965 0.258273 -0.073010 0.300934 -0.014330 0.147265 0.445210 0.066557 0.114300 -0.290116 0.178272 0.186545 -0.128120 -0.142213 -0.232337 0.083393 -0.098298 0.033583 -0.175856 -0.163257 -0.092731 -0.076469 0.365208 0.002912 -0.137189 0.252646 -0.148349 0.169085 0.223525 0.191330 -0.049033 -0.004946 -0.102882 -0.029874 0.188790 0.283121 -0.011034 -0.055293 0.153035 0.070954 0.104115 0.050447 -0.060055 -0.149266 -0.053385 -0.149882 -0.135209 -0.175483 -0.013513 0.174705 0.206783 -0.064138 0.248294 0.088939 -0.400425 0.015275 0.085416 0.215402 -0.025708 -0.092941 0.256494 0.084872 -0.065656 0.017494 0.034021 0.281917 -0.100087 0.001093 -0.238284 -0.063234 -0.081131 0.060303 -0.128137 -0.077284 0.060717 -0.276718 0.208341 -0.101049 -0.275033 0.036547 0.145159 -0.041983 -0.063844 -0.024495 0.198763 -0.226032 0.147974 -0.235910 -0.174830 -0.282163 0.085425 -0.007115 -0.004678 0.046827 -0.047671 -0.373705 0.212561 -0.067377 -0.131852 -0.258488 -0.279060 
129 -0.135257 -0.044360 0.086461 0.082388 0.009005 -0.095870 -0.396415 -0.389553 0.071129 0.167522 -0.034160 0.045825 -0.084700 -0.155348 -0.148615 0.139315 -0.155927 -0.044214 0.258381 -0.098057 0.111948 -0.215254 -0.202631 0.009261 -0.134233 -0.150019 -0.038510 -0.310641 0.160317 0.008538 0.240950 -0.096847 0.145817 -0.013259 -0.108921 0.022858 0.045182 -0.131162 0.027792 0.061747 0.287205 -0.143887 0.028245 -0.217221 -0.083807 -0.208804 0.138865 0.067409 0.277540 0.145705 0.016412 0.128458 0.007610 0.013476 0.070706 0.205759 0.035114 -0.290041 0.193737 0.047436 -0.203257 0.191443 0.015030 0.323434 0.235133 0.209946 -0.079344 -0.391007 0.157809 0.167597 0.073919 -0.126030 0.127800 0.066378 0.058071 0.279683 0.236309 -0.033558 -0.165238 -0.011589 -0.108813 -0.012916 -0.362368 0.217396 -0.082763 -0.091516 -0.162547 0.436194 -0.237918 0.166727 -0.083807 -0.024230 0.015859 0.039727 0.120252 0.023139 0.086041 -0.163593 -0.238761 -0.214682 -0.096895 0.352537 -0.038421 0.162892 0.115239 -0.038997 -0.000780 0.106775 -0.151145 -0.096012 0.169645 0.212659 -0.044671 -0.013953 -0.061271 -0.017521 0.121844 -0.163154 0.013246 -0.081399 -0.212578 -0.239946 0.033642 -0.014923 -0.021755 0.128665 -0.137444 -0.040759 
126 0.135373 0.114209 0.068108 0.133522 0.089351 -0.037074 -0.101147 -0.240924 0.011355 -0.084911 -0.156238 0.072759 0.053479 -0.261449 0.109089 -0.141259 0.138277 0.017973 0.380338 -0.078635 0.064030 -0.095707 -0.098382 -0.074692 0.006312 -0.042189 -0.192070 0.082857 -0.033932 -0.236090 0.273010 -0.007090 -0.022764 -0.195316 0.013387 0.036133 0.146344 0.017235 -0.062908 0.142630 0.279070 -0.420875 0.169392 0.075695 0.026624 -0.050035 -0.198390 0.022675 0.195500 0.102069 0.104449 -0.070055 -0.147343 0.021513 0.260233 0.157866 -0.082970 -0.064066 0.139856 -0.018022 -0.097359 -0.010872 0.282965 -0.008857 0.171590 -0.042849 -0.103786 -0.039325 0.348244 -0.034726 -0.253765 -0.116521 0.328391 0.066159 -0.273302 0.100838 0.139594 -0.056666 0.069113 0.136813 -0.075081 -0.055987 -0.304084 0.092659 -0.084750 0.158226 -0.102109 0.436979 -0.129516 0.107793 -0.074411 -0.047829 -0.044342 -0.008078 0.253811 0.064925 0.058236 0.115461 -0.448712 -0.328040 0.070132 0.165169 -0.145815 0.059346 0.004841 -0.009100 -0.049026 0.239091 -0.095584 -0.001605 0.060146 0.058874 -0.037237 -0.120624 -0.131226 0.078495 -0.272879 0.182731 0.091601 -0.118189 -0.149265 -0.269978 -0.022131 0.047956 0.101253 0.020565 -0.098726 -0.203735 
884 -0.114230 0.006914 0.142606 0.101311 0.019380 0.171305 -0.109638 -0.212919 -0.063596 0.006928 0.121775 -0.004351 0.151823 -0.137585 -0.027930 -0.091067 0.076458 -0.096436 0.194950 -0.063386 0.257978 -0.078307 -0.114576 -0.001690 -0.066332 -0.323510 0.044739 0.003824 -0.037546 0.052876 0.112122 -0.077751 0.001625 0.167796 0.099645 0.205285 -0.208368 0.324490 0.037951 0.043498 0.012946 -0.117770 0.221260 0.137440 0.189908 -0.069515 -0.117905 -0.103082 0.201379 0.213068 0.070027 -0.065208 -0.280509 0.008694 0.129890 0.413655 0.094850 0.113768 0.017014 -0.016119 0.072629 0.142615 -0.039023 -0.113058 -0.090232 0.054307 -0.130072 0.015349 0.167541 -0.250307 0.035036 0.023174 0.231174 0.119246 0.077775 0.073548 0.123382 0.044854 -0.093801 -0.079854 -0.396712 0.013207 -0.258378 0.257553 0.053369 0.122139 -0.013633 0.384671 0.209231 0.044892 -0.072585 -0.159715 0.247878 -0.185301 0.197323 -0.202588 0.194440 -0.012374 0.009396 -0.135714 0.164725 0.262815 0.019899 0.015922 -0.331701 -0.165932 0.232014 0.052908 0.053652 -0.085136 -0.135043 0.212998 0.021623 0.138144 -0.163560 -0.049468 -0.034043 0.024629 -0.166146 0.011799 0.051478 -0.048104 -0.053433 0.224649 0.014466 -0.084798 -0.066971 -0.010397 
901 -0.222260 0.031358 0.080364 0.130375 -0.027002 0.060812 -0.072262 -0.263396 0.002591 0.089342 0.006026 0.002352 -0.034983 -0.178363 0.112036 -0.092710 0.117062 -0.069789 0.217099 -0.007161 0.179655 -0.137757 -0.057758 0.045588 0.023242 -0.216982 0.030513 -0.001302 0.060597 0.005110 0.120271 -0.075145 0.000111 0.186307 0.090883 0.150406 -0.302736 0.271317 0.034334 -0.036740 0.068622 -0.236133 0.024283 0.124226 0.098095 -0.034484 -0.060526 -0.094659 0.233002 0.197268 0.106112 -0.028186 -0.141590 -0.027941 0.224470 0.301683 0.058117 0.098722 -0.023678 0.188485 0.023571 0.223695 -0.008468 -0.096866 0.067072 0.021613 0.008617 -0.033745 0.133059 -0.180635 0.107750 0.023633 0.253979 0.123329 0.129094 0.058581 0.177131 0.085176 -0.146981 -0.099854 -0.161491 -0.015286 -0.335867 0.100997 0.081813 0.002007 0.018854 0.302032 0.207458 0.050828 -0.118231 0.095825 0.232063 -0.058177 0.154083 -0.253978 0.239124 0.024857 0.006793 -0.166499 0.248280 0.097395 0.093427 0.018734 -0.446085 -0.139223 0.231586 -0.043742 0.043623 -0.101703 -0.139034 0.201162 -0.039556 0.247997 -0.240312 0.025244 -0.005329 0.084915 -0.190012 0.010000 0.043389 -0.025148 0.007066 0.212256 -0.121422 -0.004549 0.077949 0.025185 
90 -0.298010 0.254868 -0.151470 0.117741 -0.080124 -0.015124 -0.190906 -0.292724 0.031528 -0.004124 0.132213 -0.182662 0.416521 0.015722 0.064440 -0.134527 -0.031840 -0.066756 0.162098 -0.259196 0.032783 0.269191 -0.263040 -0.200266 0.072536 -0.005865 -0.017644 0.069148 -0.128377 -0.202700 0.029788 0.050792 -0.172590 0.105684 -0.092522 0.201376 -0.264271 -0.117511 -0.047918 0.047768 -0.042115 -0.207892 -0.030250 -0.135176 0.017339 0.000919 -0.190107 0.094750 0.048735 -0.019006 0.076627 0.063918 -0.128178 -0.038581 0.020666 0.443900 -0.276455 -0.112675 0.161758 0.306705 -0.119835 0.055252 0.121819 0.414647 0.085644 0.129557 -0.119915 0.058111 -0.114855 -0.069047 0.072186 -0.159958 0.094748 -0.181683 -0.019460 0.210629 -0.119447 -0.174559 -0.110029 0.132319 -0.090085 0.130010 -0.368966 0.010216 0.216853 -0.204019 0.165885 0.063078 0.116407 -0.105079 0.010080 -0.201504 -0.045285 0.253976 0.169123 -0.200720 -0.031335 0.163033 0.060351 0.068413 0.121188 0.126020 -0.099684 0.214869 -0.178617 -0.404359 0.147486 -0.027072 -0.104763 0.051593 -0.190326 0.023088 0.038224 0.032278 -0.165431 -0.232613 -0.396996 -0.164875 -0.096863 0.135399 -0.319069 -0.203116 -0.046504 0.218889 0.199687 0.223016 -0.227057 -0.188910 
136 -0.105012 -0.201212 0.071728 0.031418 -0.037742 0.120458 -0.242197 -0.269622 0.189771 -0.054866 0.159689 -0.247764 0.129670 -0.115612 -0.077786 -0.037927 -0.175403 -0.017406 0.187215 -0.062635 -0.045575 -0.024610 -0.097972 0.033851 0.065459 -0.443323 -0.311047 -0.125911 0.075835 0.094536 0.050873 -0.036476 0.000413 -0.134224 -0.104819 0.346331 0.185483 -0.295583 0.047026 0.154684 0.019565 -0.319707 0.022385 -0.274137 -0.135950 -0.106155 0.121899 0.072056 0.041234 0.080935 -0.141728 -0.071146 0.055663 0.001981 0.191416 0.295014 -0.181749 -0.101085 -0.102779 0.325758 0.303113 0.197247 0.051978 0.263717 -0.109158 0.042628 0.175505 -0.023316 0.115781 -0.004554 -0.040947 -0.011217 -0.005885 0.235483 0.106879 0.096475 0.281297 0.253186 -0.231321 -0.076114 -0.096929 -0.107685 -0.278554 0.224102 0.119407 0.193533 0.059361 0.227827 -0.020785 0.178571 0.174551 -0.406477 -0.154542 0.312537 0.228956 0.080751 -0.064554 -0.000164 0.028984 -0.175324 0.074931 0.127181 -0.058459 0.061778 -0.218098 -0.202460 -0.096879 0.145560 -0.038761 0.174343 0.148802 0.391746 0.076546 0.228122 -0.284365 0.051853 0.193750 0.239661 0.081041 0.055495 0.003094 0.008216 -0.085305 0.329962 -0.144096 0.138906 -0.287270 -0.200816 
105 0.163580 0.276550 0.087304 0.196333 0.323131 -0.026940 -0.357089 -0.322972 0.193879 -0.226698 0.010366 -0.228192 0.229810 -0.319821 -0.205430 -0.035072 -0.045669 -0.140068 0.061636 -0.136471 0.150669 0.239138 -0.169150 0.034206 -0.009202 -0.021568 0.039656 -0.252856 0.187994 -0.105148 0.264175 0.067166 -0.174591 0.203457 0.022077 0.033962 -0.121563 -0.298634 -0.079655 0.148608 0.082424 -0.159104 0.008669 0.033970 -0.030863 -0.036838 0.122625 0.041528 0.219047 0.183253 0.088818 -0.098953 0.008560 0.231162 0.255172 0.287132 -0.046534 -0.231677 0.044853 0.132713 0.074335 0.022356 0.216005 0.247230 0.139841 -0.171881 -0.029872 0.270311 0.007853 -0.183755 0.139291 0.189980 0.025912 -0.006721 -0.039660 0.011106 0.501956 -0.289240 -0.132471 0.042077 -0.466567 0.097845 -0.420281 0.220551 0.022152 -0.157742 -0.023563 0.167325 -0.058735 0.053975 -0.005074 -0.387122 -0.127793 0.132113 -0.063867 -0.021460 -0.073756 -0.106534 -0.028941 -0.387153 -0.032892 -0.058479 -0.078550 0.073264 -0.143848 -0.198484 0.073244 0.195419 0.100556 -0.100873 -0.161984 0.149083 -0.024164 0.307502 -0.071867 -0.048915 0.065809 0.221968 0.163233 -0.047936 -0.157847 0.128137 0.218490 0.177142 0.083757 0.328660 0.007434 0.003216 
316 -0.065281 0.156024 -0.112915 0.064625 -0.134401 -0.175641 0.087899 -0.240619 0.126368 0.100542 -0.214542 -0.113583 0.174914 0.016199 -0.204165 -0.150362 0.179836 0.095674 0.224768 -0.063605 0.126895 0.118477 -0.061317 -0.060234 0.018177 -0.281279 -0.140621 -0.006106 0.001511 0.116349 0.157459 -0.164130 -0.038703 0.131762 -0.123704 0.035311 -0.165710 0.068338 -0.134986 0.134023 -0.075458 -0.239832 0.195404 0.004595 -0.033513 -0.068621 -0.005339 -0.024680 -0.018743 0.176617 0.118058 -0.031630 -0.014182 0.179525 0.096016 0.296017 0.077297 -0.188811 0.101778 -0.188263 0.108392 0.195618 0.117956 0.094854 0.128407 -0.066081 -0.129558 -0.176057 0.182905 -0.271853 0.199384 0.022831 0.251335 0.078911 -0.117866 0.135567 0.135458 -0.053897 0.044220 -0.058956 -0.090031 0.084539 -0.324988 0.041374 -0.031022 0.164109 0.166002 0.172827 0.230923 0.165524 -0.147444 -0.212555 0.018497 -0.162187 0.162178 -0.065209 0.124986 0.013432 0.138237 0.012836 0.188203 0.214026 0.005268 0.076076 -0.145001 -0.175173 0.112892 0.246394 0.068747 0.036871 0.051220 0.234710 0.074835 0.212512 -0.192119 0.002890 -0.079849 -0.089734 0.100860 -0.055722 0.022011 -0.095618 -0.187838 -0.082017 0.043062 -0.032683 -0.160760 0.037912 
75 -0.117675 0.062951 0.118006 -0.083691 -0.054449 -0.103931 0.112526 -0.511009 0.027720 -0.156341 -0.258254 0.032410 0.251573 -0.160040 0.060472 0.062004 0.058748 -0.249684 0.163217 0.178428 -0.129985 0.066197 -0.014258 0.069127 -0.069268 -0.030169 -0.138964 0.030418 0.148374 0.033941 0.145433 0.169646 -0.189587 0.033787 -0.053840 -0.055193 0.016832 0.225300 0.118533 0.185219 -0.006511 -0.137584 -0.002683 -0.044145 0.083121 -0.133343 -0.033845 -0.361895 0.083313 -0.004808 -0.109264 -0.227231 -0.080547 0.026853 0.045861 0.399814 -0.295920 -0.090037 0.217850 0.208691 -0.014826 0.250877 -0.040310 -0.138561 0.108267 0.147009 -0.292805 0.036770 0.138456 0.013771 -0.098047 -0.231095 -0.195676 0.094673 0.123702 0.252542 0.425182 -0.027442 -0.392986 -0.126506 -0.217206 0.204148 -0.142763 -0.155935 0.161460 -0.020161 -0.094840 -0.017745 0.053533 0.256403 -0.024101 -0.038459 0.112646 0.085158 0.144969 0.033516 0.052062 -0.022533 0.100816 -0.006428 0.194958 0.356562 -0.111625 0.154437 -0.065708 -0.057462 0.085358 -0.199829 -0.153924 0.085720 -0.025162 0.334010 0.156096 0.091660 -0.261475 -0.098603 -0.208173 -0.047893 0.091342 0.232943 0.152698 -0.052889 -0.145624 0.144423 -0.017859 0.226232 -0.151647 -0.468214 
128 0.071230 0.293242 -0.162093 0.055249 -0.015166 -0.029129 -0.162755 -0.275435 0.277001 0.222937 -0.101620 0.231414 0.165999 -0.184948 0.173123 -0.141724 0.002583 0.290140 0.118327 -0.048336 0.134222 0.179222 -0.078224 -0.126685 -0.061458 0.045482 -0.123763 -0.069741 -0.005677 -0.274619 -0.047377 -0.090794 -0.023396 0.289680 -0.025327 0.230069 0.001492 -0.148719 0.190765 0.188355 -0.092590 -0.137018 0.347884 0.078573 0.232824 -0.096113 -0.067340 -0.193062 0.110737 0.063594 -0.178682 0.113066 -0.284892 0.171917 0.042930 0.311537 -0.068504 -0.272844 0.053201 0.121184 0.229550 0.007250 0.226444 0.166659 0.064311 0.117846 -0.050692 0.086298 -0.177210 0.102246 -0.246898 0.033423 0.126004 0.089901 -0.033509 0.357246 0.247082 -0.070968 -0.017718 0.028147 -0.115100 0.333279 -0.365219 0.067547 0.198808 0.099060 -0.020276 -0.223538 -0.111959 0.079863 0.105294 0.008816 0.062576 -0.008040 -0.123929 0.182462 -0.031588 0.183302 -0.120184 -0.246799 0.084053 0.227666 -0.168063 -0.011373 0.078282 -0.534816 0.216993 0.130274 -0.078218 0.083799 -0.068133 0.243717 0.116265 0.188796 -0.103654 -0.168272 -0.398700 -0.288895 -0.155511 0.341510 0.032417 0.006341 -0.297842 0.449015 0.333131 0.068217 0.040068 0.030849 
145 -0.002971 -0.000034 -0.167969 -0.099547 -0.155803 -0.185417 -0.231302 -0.284164 0.305298 -0.019912 0.010022 -0.216437 0.035200 -0.232467 -0.081363 0.046219 0.158571 -0.171758 0.104356 -0.131234 -0.135621 -0.012351 -0.354143 -0.213887 -0.206570 0.012999 -0.200552 -0.203007 -0.014690 -0.042919 0.187812 -0.137622 0.015587 0.206188 -0.019144 -0.002844 0.081695 -0.047164 0.050660 0.375807 0.267485 0.112106 -0.052469 0.096544 0.016193 0.000412 -0.018243 0.082609 -0.024238 0.275231 0.434411 0.199506 -0.139152 0.227202 0.119192 0.062335 0.009089 -0.254130 0.245528 0.201193 -0.016206 0.138741 0.130410 0.149604 0.133409 0.136273 -0.048640 0.273900 0.276272 -0.040570 0.132868 -0.342767 0.248496 0.068873 -0.137695 0.140097 0.157056 0.064131 -0.179274 -0.012976 -0.208744 -0.125117 -0.165048 0.397943 0.026994 0.134405 -0.058714 0.241740 0.035164 0.143378 0.069049 -0.043307 -0.080508 0.013073 0.109671 0.048474 -0.198852 0.233838 -0.233804 -0.189947 -0.061570 0.275002 0.186848 0.284534 0.022561 -0.058787 0.036624 0.016090 0.223222 -0.130457 -0.014998 0.191853 0.061364 -0.033637 -0.278916 -0.206286 -0.083752 0.134884 0.179999 0.099612 -0.056123 -0.126302 0.038125 0.136853 0.394223 0.051980 -0.005355 0.012710 
571 -0.473398 0.086825 -0.087416 0.175705 -0.040809 -0.003946 0.125821 -0.428672 0.230961 -0.010925 -0.275491 0.191420 -0.059146 -0.005237 -0.195023 0.009562 -0.047942 -0.050386 0.228340 -0.088278 0.221801 0.034091 -0.179687 -0.281258 0.009973 -0.331385 0.131749 -0.106713 -0.051208 0.054813 -0.156741 -0.045454 0.080718 0.261018 -0.240937 0.538978 -0.078486 0.012124 -0.135416 0.138974 0.066734 0.023095 0.455503 -0.049352 -0.041436 -0.240605 -0.333542 0.060923 0.244988 0.349462 0.121936 -0.212653 0.227311 0.134174 0.107184 0.239833 0.133518 0.012708 0.304579 0.287852 0.100027 0.202215 0.435439 0.293060 0.048290 -0.109876 0.026097 -0.065407 -0.030823 -0.557062 -0.280866 -0.082784 0.108688 0.146489 -0.178499 0.133436 0.181153 -0.268673 0.177308 -0.113552 -0.182597 -0.154779 0.228801 0.384973 -0.084530 0.089914 -0.328687 -0.071785 -0.279030 -0.121314 -0.003739 -0.131116 0.142696 0.207205 0.209599 -0.239180 -0.192289 -0.155220 -0.017894 -0.201519 0.397469 0.140150 -0.211525 0.233485 0.004965 -0.207886 -0.159507 0.323001 0.164450 0.227829 -0.225967 -0.000382 0.069873 0.116761 -0.101263 -0.124035 -0.214715 0.158173 0.137731 0.163842 0.413108 0.125077 -0.097093 0.102195 -0.317849 0.581967 -0.107442 -0.068436 
104 -0.102794 -0.080489 -0.063947 -0.031290 -0.257065 0.094469 -0.172497 -0.204790 0.236066 0.177104 0.136423 -0.049567 0.041086 0.119376 -0.013833 0.078561 0.083731 -0.163987 0.055292 -0.266763 -0.084488 0.269604 -0.115880 -0.200548 -0.099444 -0.141569 -0.028318 -0.023722 0.213234 0.367450 -0.028982 -0.009877 -0.119006 0.370817 -0.153462 0.069253 -0.088702 -0.125487 -0.065900 0.179984 0.211280 -0.007665 0.072003 -0.051134 0.439172 -0.015893 -0.057669 -0.034737 0.173084 0.214712 0.007079 0.136420 -0.101974 0.165254 -0.171001 0.288419 -0.180534 -0.074691 0.348769 0.057360 0.127224 0.115259 0.108948 0.331048 0.190201 0.088287 0.173610 -0.082382 -0.110996 -0.129970 -0.013302 -0.366445 0.120945 0.071965 0.069624 -0.026379 0.114323 0.199014 -0.160350 -0.077465 -0.371234 0.009385 -0.447066 0.099439 -0.219792 0.067231 0.146589 -0.108737 0.017201 0.116783 0.013885 0.115616 0.011344 -0.293207 0.110809 -0.013792 -0.006997 -0.148542 -0.297557 -0.272530 0.235026 0.301541 -0.294441 0.206104 -0.126576 -0.422534 -0.223509 -0.335171 -0.051803 0.113688 0.052767 0.070981 -0.000124 0.168856 -0.057389 -0.208984 0.032500 0.298755 -0.057791 -0.041604 -0.008488 -0.105220 -0.049573 0.016806 0.076364 -0.174790 -0.118247 -0.233782 
473 -0.211894 0.127205 -0.258170 -0.147930 0.066076 0.025729 -0.268096 -0.324288 -0.105945 0.226187 -0.138059 -0.263367 0.181438 -0.140516 0.028744 -0.229772 0.145720 0.303674 0.034106 -0.160385 0.224226 -0.070007 -0.220446 -0.193305 -0.219344 -0.433683 0.172097 0.198003 -0.165246 0.092122 0.186110 0.225697 -0.287429 -0.051707 -0.048297 0.189708 -0.222451 -0.163440 -0.270611 0.050664 0.045340 -0.155373 -0.160581 0.008415 -0.027307 0.043577 0.081194 0.003025 0.124168 -0.023336 0.083124 0.140197 -0.350862 0.074597 0.488465 0.429427 -0.202615 0.126584 0.293344 0.081579 -0.109696 0.324880 0.404483 -0.124622 -0.053655 -0.216379 0.200748 -0.124419 -0.192588 -0.027869 0.206844 -0.112525 -0.050832 0.235757 0.048715 0.331339 0.286420 -0.150410 0.013564 0.149857 -0.046079 0.111009 -0.112010 0.452015 -0.066618 0.210788 -0.009415 0.110717 -0.057368 0.061664 -0.281167 -0.078070 0.155080 0.250291 0.063770 0.012793 -0.040199 -0.259577 0.109736 -0.127398 -0.037726 0.465809 -0.172784 -0.026541 -0.111342 -0.196901 -0.083676 0.304633 0.122083 0.312823 -0.389499 0.080417 -0.042535 -0.040106 -0.026982 -0.012048 0.123314 -0.087107 0.028512 -0.258500 0.082289 -0.060940 -0.126342 -0.005174 -0.001921 0.186437 -0.299346 -0.038978 
327 -0.055937 0.079399 0.053460 0.152314 -0.075186 -0.157439 0.051252 -0.368489 0.118760 -0.025883 -0.035320 -0.014776 -0.027910 -0.072559 0.088843 -0.288299 0.069514 -0.110693 -0.006610 -0.252245 0.064352 0.095228 -0.315470 -0.305400 0.082764 -0.168024 0.038319 -0.030810 0.140649 0.061298 -0.055930 0.251203 -0.088305 0.065832 -0.214501 0.136333 -0.007867 0.183335 0.104075 0.078916 0.239504 -0.088993 0.231018 0.108670 0.102420 -0.127517 0.004820 -0.206639 0.056562 0.258110 0.266706 0.313849 -0.274199 -0.021422 0.321970 0.214392 -0.041509 0.029992 0.179055 -0.057532 -0.079942 -0.055475 -0.012302 0.011405 -0.212762 0.154482 -0.049113 -0.294349 -0.128960 -0.546021 0.464482 0.078892 0.159130 0.185216 -0.070374 0.247541 0.243651 -0.120066 -0.118356 0.097973 -0.131612 -0.012515 -0.177862 0.199785 0.191586 0.341668 0.045002 -0.097806 -0.155937 0.286611 -0.268181 -0.083602 0.047269 0.006957 0.132517 -0.023606 -0.274373 0.079489 -0.195960 0.028778 0.020918 0.114335 0.108207 0.323778 -0.012183 -0.534673 -0.037592 0.202059 0.115751 0.071930 0.236963 0.093572 -0.228938 0.200310 -0.114914 -0.252442 -0.015461 -0.046007 0.023237 -0.121986 0.042169 -0.060191 -0.207685 0.544915 -0.205183 0.076266 -0.080275 -0.075490 
53 0.039009 0.115848 0.137294 -0.002702 -0.021798 -0.348972 -0.319129 -0.254957 0.055371 -0.145162 0.151430 -0.174631 0.104013 -0.198473 -0.307538 -0.135390 0.085229 0.149571 0.240952 -0.111640 0.016552 -0.036761 -0.235061 -0.165141 0.185134 -0.163743 -0.203538 -0.028371 0.034590 -0.219583 0.231727 -0.197313 -0.231094 0.180024 0.018214 0.148844 -0.076798 0.011051 -0.085038 0.246440 0.307965 -0.017891 -0.007231 0.156283 -0.043258 0.081162 -0.114382 0.024679 0.126541 0.183632 0.366923 0.244689 -0.123788 0.031779 0.218628 0.181572 -0.070224 -0.336914 0.035663 0.016201 -0.075482 -0.024410 -0.010097 0.014532 0.122641 -0.134396 0.019908 0.049380 0.033483 0.012631 -0.185512 -0.173487 0.093665 -0.047879 -0.280793 0.097261 0.340288 0.045428 0.163263 -0.021455 -0.212444 -0.043140 -0.183546 0.484985 0.085271 -0.038584 -0.245922 0.251582 0.110293 0.213574 0.031282 -0.174118 0.118328 -0.057076 0.383207 -0.021824 0.190852 0.161267 -0.265605 0.092129 -0.012241 0.355543 -0.100287 0.348988 0.022778 0.014449 -0.330507 0.091659 0.318566 -0.072938 -0.198866 0.089270 -0.042383 0.103675 0.053667 0.067426 -0.098162 0.254739 0.226788 -0.198377 -0.204360 0.048636 -0.037751 0.256966 0.249810 0.534542 0.174530 -0.165787 
490 -0.208908 -0.072165 0.039901 0.130354 -0.066964 -0.188550 -0.160987 -0.167870 -0.050829 0.031720 -0.192280 -0.047528 -0.195103 0.010837 -0.300445 0.061525 0.056919 -0.010142 0.185877 -0.247308 -0.043935 -0.024753 -0.322452 -0.074494 -0.011233 -0.185779 -0.146659 -0.344568 0.094675 -0.270764 0.357729 0.279848 -0.039261 0.200016 -0.065438 -0.042185 -0.209250 0.023849 0.153542 0.392018 0.054710 0.002873 0.106417 0.198362 -0.273912 0.054256 -0.036685 -0.072685 0.289045 0.084602 0.289837 -0.094414 -0.299840 0.172408 0.363375 -0.015433 -0.265573 0.273318 0.106957 0.207131 0.194917 0.285786 0.321535 0.173055 0.582960 0.027371 0.018033 -0.232498 -0.093222 -0.157920 -0.010730 -0.272596 0.013443 -0.231725 0.271561 0.258048 0.287672 -0.254704 0.136077 -0.005141 -0.111476 -0.097115 0.017936 0.217716 -0.008590 0.381602 -0.095491 0.302897 -0.135080 0.105864 -0.085819 -0.167152 0.232861 -0.208483 0.124257 -0.142830 0.061997 -0.157771 0.037667 -0.323180 0.227464 0.072255 -0.280761 0.204500 -0.188892 -0.170573 0.179476 0.419042 -0.084766 0.190206 -0.190171 -0.105901 -0.292058 -0.291971 -0.148960 -0.010583 -0.185890 -0.163557 0.055597 0.046093 -0.039241 -0.318114 0.111482 0.010945 0.068628 0.264784 -0.086311 0.024078 
108 -0.134885 0.382339 -0.063966 -0.050289 -0.159686 -0.097100 -0.041144 -0.432396 0.100893 0.023396 0.060813 -0.155114 0.102457 -0.241755 0.051385 0.011372 -0.368633 -0.173792 0.175838 -0.286340 0.345769 0.206105 -0.273012 -0.060148 0.165054 -0.235276 0.006655 -0.234075 0.185940 0.102819 0.224850 -0.048700 -0.007007 0.056344 0.014920 0.456398 -0.232343 0.305231 -0.109554 -0.105147 -0.182391 -0.199322 0.183177 0.187294 0.112050 0.192636 -0.090506 -0.061172 -0.074386 -0.053213 0.178593 -0.083977 -0.126506 0.045339 0.256984 0.118735 -0.127967 0.012149 0.313568 -0.034278 0.131750 0.431910 -0.344579 0.023580 0.165084 0.006466 0.084483 0.068377 0.119228 0.093000 0.037762 -0.221543 0.148570 -0.095906 -0.426024 0.077017 0.315177 0.074684 -0.027718 0.001905 -0.143925 -0.354913 -0.092416 0.155899 0.111768 -0.035260 -0.026750 0.187292 -0.257712 0.023570 -0.159611 0.021486 -0.019481 -0.131862 -0.448316 -0.069020 -0.017337 0.101817 -0.198500 -0.065001 -0.030935 0.071621 -0.239685 -0.045431 -0.042099 -0.102069 -0.073716 -0.090306 0.053592 -0.246969 -0.197293 0.203744 -0.069603 -0.011305 -0.184809 -0.167134 -0.631339 -0.043596 0.010580 -0.177282 -0.092509 -0.279752 -0.286241 0.250929 0.052516 0.038367 -0.133069 -0.025922 
510 -0.283792 0.154932 -0.228454 0.110560 -0.182978 -0.176439 -0.357691 -0.585107 0.208499 0.031759 -0.409851 -0.175778 0.140383 -0.057825 -0.223920 -0.215629 -0.082514 0.107417 -0.154301 -0.226806 0.126178 -0.218694 -0.225344 0.367732 -0.019629 -0.192135 0.181927 -0.019678 0.025044 -0.136517 -0.082237 -0.187660 -0.102554 0.068058 -0.234085 -0.033834 -0.399648 -0.057195 0.423640 -0.006828 0.276871 0.028617 0.016166 0.092888 0.075678 -0.120261 0.116953 0.055690 0.029217 0.211970 0.272208 0.024493 -0.097004 0.077406 0.162048 0.080643 -0.292626 0.056649 0.110589 -0.200725 0.133670 0.460326 0.098167 0.159764 -0.094167 0.036981 -0.127128 0.065879 0.396172 -0.198470 -0.075952 -0.012412 0.157556 0.021751 -0.108213 0.336564 0.107689 -0.088377 -0.337721 -0.266729 -0.145719 0.320147 -0.101784 0.250810 -0.378290 0.008498 -0.204905 0.113109 -0.009973 -0.211495 -0.030568 0.310943 0.103505 -0.157903 0.235543 -0.171608 -0.090909 0.170425 0.017541 -0.016505 0.049593 0.068265 -0.198881 -0.155719 -0.198871 -0.227252 -0.041609 -0.067646 0.045508 0.216571 -0.277102 -0.066752 -0.169666 0.135522 -0.097269 -0.100857 -0.163519 0.049410 0.088874 0.246837 -0.065847 -0.305195 0.030333 0.171237 -0.024033 -0.216377 -0.275085 -0.130351 
256 -0.146721 -0.086354 0.044385 -0.013775 -0.173827 0.195945 -0.120069 -0.636655 0.076508 0.083358 -0.044048 0.069521 0.102846 -0.073260 -0.106574 -0.056250 0.100321 -0.002714 0.263601 -0.109633 -0.077686 -0.005734 -0.197305 -0.374260 -0.103676 -0.097793 0.031151 -0.249506 -0.054128 0.008569 0.206356 -0.029169 -0.274956 -0.035516 0.062245 -0.043856 -0.181777 -0.227699 0.178448 0.148161 -0.024702 -0.156513 0.187781 -0.206692 -0.113495 0.036027 0.068518 0.191991 0.050454 0.345541 0.025998 0.106853 0.053828 0.054345 0.046910 0.072237 -0.335741 -0.138904 0.063735 -0.139985 0.119103 0.105691 0.191377 0.059597 0.063341 0.141025 -0.361642 -0.322074 0.112908 0.080833 -0.205484 -0.021203 0.075524 0.095689 0.172412 0.039319 0.266843 0.094594 0.011715 0.019236 -0.102382 -0.067927 -0.315431 0.144379 0.147393 -0.015158 0.014082 0.361523 0.148888 -0.127611 -0.257459 0.007684 -0.061696 -0.061073 0.084105 0.025332 -0.060156 -0.136653 -0.148965 -0.084916 0.117313 0.396873 -0.228061 0.329272 -0.111112 -0.029849 0.297063 0.075294 -0.129069 -0.129998 0.125768 0.330187 0.050778 -0.168981 -0.052196 0.001353 -0.200530 0.083725 0.218181 0.007946 -0.172493 0.036963 0.228207 0.232491 0.126386 0.119278 -0.226176 0.000382 
132 -0.174981 -0.123268 0.060662 0.229597 -0.048046 0.135101 -0.269419 -0.082378 0.103057 -0.239823 -0.127238 -0.214231 -0.168980 -0.050015 0.025783 -0.176393 0.144572 -0.025211 0.077789 -0.223832 0.175622 -0.277068 -0.071029 0.163164 -0.036458 -0.117583 0.081768 0.129435 -0.183129 -0.270959 0.297884 -0.115273 0.026438 0.216690 -0.094883 0.262566 0.087443 0.080224 0.184621 -0.004907 -0.023274 -0.101454 -0.087544 0.142093 -0.159342 -0.090979 -0.068543 0.117295 0.153045 0.210695 0.291732 0.221289 -0.367616 0.190365 0.124313 0.120691 0.183010 -0.183986 -0.012100 0.202969 0.366677 0.100561 0.130782 0.070362 0.321262 0.245816 -0.046342 -0.068492 0.149726 0.217133 -0.084890 -0.115947 -0.265674 0.119502 0.020126 0.118318 0.251116 -0.038906 -0.006833 0.216322 -0.105470 0.034429 -0.499727 0.276173 0.078742 0.098528 0.182460 0.226615 -0.171124 0.041260 0.068859 -0.136440 0.064643 0.099320 0.195147 -0.100651 -0.028591 0.046319 0.018902 -0.230620 -0.007245 0.215820 -0.081112 0.068467 -0.232036 -0.235258 -0.013676 0.158194 -0.106707 0.051330 -0.188551 0.261648 -0.091910 -0.139616 -0.313714 0.089740 -0.105406 0.025773 0.195332 0.081737 -0.354248 0.087375 -0.147789 -0.155677 -0.027451 0.394905 -0.406326 -0.290735 
550 -0.163386 -0.012129 -0.263722 0.206698 0.204489 0.197620 -0.006943 -0.373553 0.204868 -0.133783 -0.025945 0.171699 0.085363 -0.043450 -0.326970 -0.097492 0.196149 0.106872 0.282520 0.037907 -0.062130 -0.040946 -0.055057 -0.043845 0.096555 -0.503533 0.265952 0.208358 0.448406 -0.001606 0.103177 -0.110787 0.266565 0.191253 0.265731 0.319592 -0.187036 -0.157810 0.105400 -0.186502 0.089248 -0.038101 0.403356 0.136627 0.035673 -0.317081 -0.316100 0.182385 -0.081475 0.273537 0.112773 0.002542 -0.012921 0.151666 0.316270 0.198066 0.131754 0.001103 0.242517 0.130026 0.252101 0.168236 0.166280 -0.029673 -0.014498 0.202834 -0.202000 0.115731 0.180459 -0.510348 0.131947 0.150556 0.101946 -0.093593 -0.170022 0.547445 0.312302 -0.360614 -0.014757 -0.479280 -0.011958 0.020744 0.192803 0.197501 -0.149400 0.053907 -0.044505 -0.051386 -0.046653 0.348584 0.211484 0.110129 0.097918 0.099227 0.230682 -0.365686 -0.272995 -0.055021 -0.310612 -0.171688 0.111358 0.019897 -0.410637 0.064642 -0.041778 -0.470726 0.067744 0.374942 0.159651 0.111235 -0.252302 0.286213 -0.004095 0.119106 -0.039279 -0.176120 -0.076302 -0.141996 -0.330831 -0.066800 0.061358 -0.171723 -0.243213 0.184293 0.172004 -0.125098 -0.019235 -0.281908 
372 -0.227777 0.177706 -0.164562 0.230358 -0.008469 -0.017723 0.142769 -0.356709 0.060551 0.128564 0.054661 -0.191811 0.065192 -0.167217 -0.088000 -0.164883 0.092559 0.066474 0.159883 -0.153385 0.126685 0.021188 -0.104360 0.043720 0.064868 -0.328209 0.020160 -0.110289 0.002315 0.222017 -0.042567 -0.034777 0.132408 0.038645 -0.029864 0.235352 -0.068152 0.294991 0.139360 -0.119320 -0.036331 -0.189941 0.018152 0.078595 0.018467 -0.135154 -0.092646 -0.041384 0.178922 0.312247 0.300962 -0.129024 -0.210357 0.133183 -0.059819 0.376989 -0.181280 -0.069548 -0.032772 0.076757 0.072994 -0.027753 0.229105 -0.009805 -0.070335 0.006851 -0.196258 -0.062132 0.217751 -0.132520 -0.032538 0.083829 0.051941 0.013322 0.072955 0.044341 0.132811 -0.106728 -0.114550 -0.115707 -0.378735 0.036396 -0.324127 0.062958 0.068390 0.171902 0.075241 0.268921 0.183133 0.178542 -0.138888 -0.083890 -0.029565 -0.058009 0.283359 0.053280 0.187018 0.029902 -0.035618 -0.115810 0.100847 0.144549 0.110801 0.146918 -0.017157 -0.176538 0.018573 0.037006 0.019675 0.160171 -0.130233 0.133448 0.080878 0.002247 0.016725 -0.098061 0.001947 0.218688 -0.185190 -0.024208 -0.006952 -0.117156 -0.142039 0.061738 -0.066166 -0.052410 -0.088146 -0.035231 
305 -0.279782 0.309773 -0.325128 0.222963 -0.107782 0.028968 -0.438637 -0.250923 0.165355 0.214787 -0.156641 0.110197 -0.081825 0.024693 0.014943 -0.203002 -0.021350 -0.034329 0.236805 -0.175009 0.126318 -0.056528 -0.046456 -0.166399 -0.124054 -0.167185 0.125329 -0.151110 -0.108459 0.250238 -0.019351 0.209716 -0.077228 0.193631 -0.061892 0.129119 -0.198928 0.120585 -0.016049 0.026766 -0.044435 -0.153260 0.101154 0.137248 -0.043161 0.194445 -0.006799 0.016688 0.022950 0.215982 0.283420 -0.229333 0.007249 -0.055259 0.229690 0.355285 -0.182576 -0.049454 0.291508 -0.045577 -0.074511 0.100388 0.174455 -0.090431 0.294799 0.202052 -0.016166 -0.046787 0.133626 -0.170385 0.141939 -0.039109 0.114292 0.014949 0.181186 -0.052531 0.204785 0.009850 -0.348313 -0.084330 -0.019512 -0.068289 -0.275336 0.144590 0.068099 0.346812 0.068879 -0.053474 0.210254 0.198589 -0.097894 -0.402850 -0.021180 0.135493 0.081936 -0.144355 0.169984 -0.182701 -0.129562 0.116179 0.061953 0.072425 -0.063300 0.052921 -0.028236 -0.285236 0.090901 -0.043149 0.311247 0.195543 -0.172907 0.241331 -0.159531 0.123090 -0.079064 -0.103344 -0.008912 0.098672 -0.037649 -0.105294 0.149897 0.148309 -0.182458 0.085704 0.158533 -0.048238 -0.249188 -0.166307 
281 -0.171408 -0.232836 -0.105900 0.328725 -0.014495 0.002304 0.044490 -0.310235 0.228360 -0.013168 0.348556 -0.139103 0.032305 -0.353710 0.008109 -0.106928 0.510706 0.197878 0.098582 -0.376384 -0.217323 -0.035767 -0.140489 -0.184412 -0.179482 -0.259914 -0.022743 -0.128013 -0.104477 -0.155202 0.041135 0.005676 -0.043410 0.134343 0.024284 0.052567 -0.239634 0.095268 0.100153 0.177749 0.023052 -0.420988 0.017964 0.028189 -0.159203 -0.086387 0.284483 -0.258785 0.263447 0.236421 0.219843 -0.151378 -0.033058 0.050473 0.352448 0.248730 -0.071054 -0.001392 0.304414 -0.003692 -0.004558 0.177579 0.067190 -0.084798 0.079250 -0.220101 0.049396 -0.565694 0.159918 -0.047259 0.013621 -0.326411 0.032103 -0.038293 0.180657 -0.026691 0.057905 -0.208750 -0.038473 0.099934 0.070542 0.223039 -0.147329 0.062082 -0.042953 0.155887 0.043546 0.273841 -0.262898 0.156351 -0.046536 -0.136088 0.249310 -0.281453 -0.037416 0.006669 -0.005635 -0.033737 -0.050911 -0.233661 0.198688 0.140784 -0.163778 -0.046129 0.012232 -0.172128 -0.039243 0.277033 0.197009 -0.113445 -0.310279 0.254551 0.064507 -0.067044 -0.162142 -0.009234 -0.010023 -0.120509 0.049624 -0.021506 0.069424 -0.049639 -0.343198 -0.014660 -0.094096 0.053523 -0.032694 -0.204346 
328 -0.278401 0.091196 0.059532 0.158695 0.012041 0.101621 0.079331 -0.474694 0.076762 0.004458 -0.132959 -0.150333 0.097578 -0.097765 -0.099350 -0.195272 0.234651 0.046901 -0.043816 -0.182055 0.032353 0.049230 -0.010114 -0.127706 0.107344 -0.214648 -0.033117 -0.029142 -0.002447 0.189580 0.024314 -0.006663 0.082399 0.227845 -0.065454 0.061128 -0.097672 0.228295 0.114860 -0.089814 0.061762 -0.179438 0.226337 -0.068843 0.018745 -0.116803 0.063303 -0.090310 0.230277 0.242545 0.163548 -0.067281 -0.032261 0.129053 0.114038 0.318113 -0.038919 -0.025449 0.128821 -0.054269 -0.051383 0.221730 0.182206 0.057709 0.100747 0.129124 0.068890 0.064686 0.081141 0.004255 0.148440 -0.071494 0.130101 0.011493 0.111517 0.058149 0.164040 -0.141283 -0.064856 -0.037595 -0.100833 0.006807 -0.365590 0.129696 0.113516 0.210725 0.113347 0.366904 0.079789 0.042099 -0.100251 -0.109991 -0.123769 -0.050741 0.226406 -0.218937 0.153988 0.155942 -0.005241 -0.102100 -0.125986 0.095516 0.098452 -0.064341 -0.074810 -0.276672 0.048864 -0.032632 0.049003 0.027464 0.041404 0.123366 0.067740 0.021578 -0.103348 0.018760 -0.015792 -0.045648 -0.076811 -0.004157 0.101897 -0.020201 0.013187 0.053620 0.086552 0.132565 -0.040517 -0.048695 
262 0.221216 0.322075 0.345909 0.067084 -0.194637 -0.289463 0.112021 -0.205901 0.012499 0.273943 0.137493 -0.149123 0.157807 -0.120101 -0.189926 0.101402 0.053914 0.191228 -0.096412 -0.152224 0.270316 0.087905 -0.014201 -0.208309 0.064686 -0.206243 0.195313 -0.000824 0.123426 -0.264505 0.057210 -0.020086 -0.086671 0.229225 0.112170 0.233674 -0.269387 -0.016147 0.202445 0.037090 0.466593 -0.204341 0.095957 0.098485 0.184594 0.127081 -0.320154 0.052248 0.195346 0.247983 0.369023 0.127048 -0.007316 -0.040583 0.119299 0.225419 -0.142190 -0.040233 0.219218 0.025999 0.199918 0.026235 0.059814 0.268740 0.234875 0.075049 0.034893 -0.146507 0.178921 0.015677 -0.128358 -0.100204 -0.163771 0.094942 0.085860 0.174752 0.162787 -0.001992 -0.015832 -0.076954 0.013990 -0.032614 -0.096001 -0.000343 -0.073533 -0.023557 0.016434 0.018468 0.203541 0.196813 0.218145 0.003139 0.011175 -0.176028 0.372893 -0.176689 -0.256940 -0.015764 0.058305 -0.395603 0.194708 -0.033547 -0.062388 -0.025827 -0.086838 -0.439093 -0.193688 -0.030867 0.242154 0.018970 0.090850 0.154943 0.042419 0.088127 -0.110634 0.135143 -0.311493 0.076222 0.125826 0.269931 0.319441 0.024282 -0.216137 0.316307 0.038531 -0.228675 -0.254932 0.097303 
114 0.109339 -0.111125 0.158012 0.107910 -0.145390 -0.087455 -0.047637 -0.273465 0.069125 0.206775 -0.191879 -0.041530 0.395694 -0.257583 -0.037549 -0.042323 -0.125582 0.086497 -0.052906 0.116577 0.098559 0.133387 0.004176 -0.085102 0.011778 -0.031612 0.188247 -0.003342 0.289005 0.060613 -0.026952 0.024522 -0.116382 0.046512 -0.150730 0.291131 -0.273753 0.122828 0.065631 0.011456 -0.029784 -0.177701 0.284637 -0.135004 0.177195 -0.140804 -0.050139 -0.023959 0.019206 0.252665 0.080936 -0.014573 -0.000545 0.102503 0.089844 0.401507 -0.044408 0.300645 0.289951 -0.061086 0.008372 0.274869 0.082861 0.092705 0.373797 0.133499 -0.034245 0.081016 0.384278 0.037854 0.206027 -0.145273 0.231480 0.091226 0.352904 0.292753 -0.009172 0.013771 0.208822 0.040740 -0.200818 0.127091 -0.233252 0.214710 0.417015 -0.178435 -0.324017 0.079147 0.139981 -0.036276 0.305586 -0.009558 -0.069889 0.220939 -0.027849 -0.381375 -0.104554 -0.092295 -0.135927 -0.007667 0.021487 0.149934 -0.122095 -0.003350 0.195411 -0.112005 -0.314945 0.218413 -0.228151 0.042442 -0.102921 0.202487 0.059963 0.338431 -0.330838 -0.152602 -0.105247 0.106090 -0.046308 -0.005291 -0.253572 0.263312 -0.039783 0.317586 -0.241092 0.202193 -0.231120 -0.124082 
200 -0.260779 0.266148 0.141068 0.247786 -0.026114 -0.199453 -0.073568 -0.444150 -0.015573 0.035725 -0.018657 0.014223 0.161789 -0.208440 -0.120297 -0.006812 -0.063528 0.087772 0.106638 -0.007494 0.062816 -0.015082 -0.344033 -0.258538 -0.279008 -0.140315 0.174301 0.029717 0.134062 0.025569 -0.140146 0.205224 -0.143917 0.064750 -0.034246 0.146174 -0.280265 -0.000875 0.072040 0.000994 -0.038576 -0.333503 0.211300 0.245654 0.327134 -0.105996 -0.222601 -0.319865 0.166193 -0.061261 0.123025 0.206370 -0.131729 0.318383 -0.410318 0.275516 -0.166821 -0.095243 0.280246 0.361630 -0.013143 -0.104996 0.094189 0.109778 -0.119121 0.270157 0.191066 -0.006994 0.309562 -0.085692 -0.025747 -0.084682 -0.006877 -0.098119 0.012272 0.230017 0.144494 -0.137956 -0.131089 -0.213049 -0.184611 0.122965 -0.387336 0.240634 -0.043296 0.103274 -0.077173 -0.075814 -0.126271 -0.032902 0.314413 -0.056944 0.139716 -0.077896 0.065717 0.048582 -0.069724 -0.386702 -0.222623 -0.070970 0.045500 -0.101354 0.035495 -0.032336 0.006770 0.005550 0.004280 0.064884 -0.250478 -0.044771 -0.102113 0.063459 0.203957 0.264528 -0.423063 -0.137414 -0.275114 -0.168143 -0.048180 0.364833 0.211494 0.106996 0.115176 -0.055631 0.208116 0.332526 -0.082554 -0.097907 
361 -0.200808 0.042370 -0.069033 0.024524 -0.260745 0.067899 -0.082076 -0.331019 0.137182 0.089924 -0.116488 0.058792 0.155781 0.095968 -0.009021 -0.287525 0.345560 0.025832 0.219788 -0.078960 0.297070 -0.079903 -0.112578 0.089666 0.092591 -0.375153 -0.095475 0.122640 -0.187327 -0.069725 -0.053903 0.027389 -0.101209 0.228885 -0.133203 0.142899 -0.030880 -0.016051 0.083016 0.294885 0.106629 -0.134735 0.142135 -0.119637 -0.047722 0.016994 0.013390 -0.130189 0.194103 -0.191616 0.069590 -0.161800 -0.240737 0.276477 0.198805 0.188527 0.022655 0.081693 0.157211 -0.089534 -0.115030 0.173263 0.161496 -0.062986 0.076495 -0.257370 0.328395 -0.090616 0.454744 -0.045422 0.174526 -0.191347 0.006831 -0.011508 0.145195 0.104153 0.216727 -0.091315 0.359158 -0.031484 -0.113833 0.238206 -0.280636 -0.008452 -0.004113 0.111434 0.166085 0.296680 0.291471 0.002884 -0.272083 -0.239646 0.171514 -0.144132 0.079516 0.000568 0.044420 0.002850 -0.134973 -0.150578 0.226330 0.120902 -0.313492 0.020562 -0.151272 -0.167491 0.099300 0.325729 0.110631 -0.000060 0.054105 0.108166 -0.191768 0.053649 -0.115070 -0.092810 -0.157823 0.074367 0.251250 -0.006371 -0.107421 -0.089545 -0.135435 0.058856 -0.108000 0.049882 -0.119105 -0.123775 
79 -0.254126 -0.100782 0.051300 -0.070188 0.113174 -0.009112 -0.179388 -0.295473 0.254952 0.081698 0.038158 -0.037369 0.246563 -0.184241 -0.102426 -0.280993 0.330414 -0.029682 0.073486 -0.014381 0.110293 -0.183649 -0.082217 0.138291 -0.006090 -0.015545 -0.017117 0.025224 0.212347 -0.004139 0.150105 0.269664 -0.084151 -0.185746 -0.061464 0.136294 0.294292 -0.067125 -0.003570 0.121555 0.378041 -0.328995 -0.061267 -0.104353 -0.036197 -0.140391 0.090718 0.214414 0.151334 0.136410 0.061506 0.074834 0.022266 -0.012150 0.170099 0.410928 0.240551 -0.036432 0.143308 -0.017286 0.010178 0.107728 0.021155 -0.040638 0.311320 0.062073 -0.106386 -0.118040 -0.071382 -0.016420 0.076158 -0.169247 0.215077 0.004488 -0.071136 -0.170572 0.360982 0.033283 -0.133706 -0.222040 -0.201960 -0.157055 -0.353457 0.389424 0.019947 0.002461 -0.015767 0.084982 -0.023584 -0.010893 -0.025562 -0.237173 0.192015 -0.001265 0.042696 -0.122319 -0.020227 0.124987 -0.242559 -0.024666 0.076265 0.172085 -0.090419 0.173274 -0.040053 -0.164773 -0.021983 0.068502 0.122524 -0.073158 0.080852 0.224858 -0.128068 0.092075 -0.078607 0.289410 -0.262775 0.061116 0.427652 -0.119075 -0.116041 -0.383947 0.122249 -0.013144 0.109328 0.128772 -0.151852 0.042604 
